{"learner":{"attributes":{"scikit_learn":"{\"_estimator_type\": \"regressor\"}"},"feature_names":["dayofyear","hour","dayofweek","quarter","month","year","lag1","lag2","lag3"],"feature_types":["int","int","int","int","int","int","float","float","float"],"gradient_booster":{"model":{"gbtree_model_param":{"num_parallel_tree":"1","num_trees":"500"},"iteration_indptr":[0,1,2,3,4,5,6,7,8,9,10,11,12,13,14,15,16,17,18,19,20,21,22,23,24,25,26,27,28,29,30,31,32,33,34,35,36,37,38,39,40,41,42,43,44,45,46,47,48,49,50,51,52,53,54,55,56,57,58,59,60,61,62,63,64,65,66,67,68,69,70,71,72,73,74,75,76,77,78,79,80,81,82,83,84,85,86,87,88,89,90,91,92,93,94,95,96,97,98,99,100,101,102,103,104,105,106,107,108,109,110,111,112,113,114,115,116,117,118,119,120,121,122,123,124,125,126,127,128,129,130,131,132,133,134,135,136,137,138,139,140,141,142,143,144,145,146,147,148,149,150,151,152,153,154,155,156,157,158,159,160,161,162,163,164,165,166,167,168,169,170,171,172,173,174,175,176,177,178,179,180,181,182,183,184,185,186,187,188,189,190,191,192,193,194,195,196,197,198,199,200,201,202,203,204,205,206,207,208,209,210,211,212,213,214,215,216,217,218,219,220,221,222,223,224,225,226,227,228,229,230,231,232,233,234,235,236,237,238,239,240,241,242,243,244,245,246,247,248,249,250,251,252,253,254,255,256,257,258,259,260,261,262,263,264,265,266,267,268,269,270,271,272,273,274,275,276,277,278,279,280,281,282,283,284,285,286,287,288,289,290,291,292,293,294,295,296,297,298,299,300,301,302,303,304,305,306,307,308,309,310,311,312,313,314,315,316,317,318,319,320,321,322,323,324,325,326,327,328,329,330,331,332,333,334,335,336,337,338,339,340,341,342,343,344,345,346,347,348,349,350,351,352,353,354,355,356,357,358,359,360,361,362,363,364,365,366,367,368,369,370,371,372,373,374,375,376,377,378,379,380,381,382,383,384,385,386,387,388,389,390,391,392,393,394,395,396,397,398,399,400,401,402,403,404,405,406,407,408,409,410,411,412,413,414,415,416,417,418,419,420,421,422,423,424,425,426,427,428,429,430,431,432,433,434,435,436,437,438,439,440,441,442,443,444,445,446,447,448,449,450,451,452,453,454,455,456,457,458,459,460,461,462,463,464,465,466,467,468,469,470,471,472,473,474,475,476,477,478,479,480,481,482,483,484,485,486,487,488,489,490,491,492,493,494,495,496,497,498,499,500],"tree_info":[0,0,0,0,0,0,0,0,0,0,0,0,0,0,0,0,0,0,0,0,0,0,0,0,0,0,0,0,0,0,0,0,0,0,0,0,0,0,0,0,0,0,0,0,0,0,0,0,0,0,0,0,0,0,0,0,0,0,0,0,0,0,0,0,0,0,0,0,0,0,0,0,0,0,0,0,0,0,0,0,0,0,0,0,0,0,0,0,0,0,0,0,0,0,0,0,0,0,0,0,0,0,0,0,0,0,0,0,0,0,0,0,0,0,0,0,0,0,0,0,0,0,0,0,0,0,0,0,0,0,0,0,0,0,0,0,0,0,0,0,0,0,0,0,0,0,0,0,0,0,0,0,0,0,0,0,0,0,0,0,0,0,0,0,0,0,0,0,0,0,0,0,0,0,0,0,0,0,0,0,0,0,0,0,0,0,0,0,0,0,0,0,0,0,0,0,0,0,0,0,0,0,0,0,0,0,0,0,0,0,0,0,0,0,0,0,0,0,0,0,0,0,0,0,0,0,0,0,0,0,0,0,0,0,0,0,0,0,0,0,0,0,0,0,0,0,0,0,0,0,0,0,0,0,0,0,0,0,0,0,0,0,0,0,0,0,0,0,0,0,0,0,0,0,0,0,0,0,0,0,0,0,0,0,0,0,0,0,0,0,0,0,0,0,0,0,0,0,0,0,0,0,0,0,0,0,0,0,0,0,0,0,0,0,0,0,0,0,0,0,0,0,0,0,0,0,0,0,0,0,0,0,0,0,0,0,0,0,0,0,0,0,0,0,0,0,0,0,0,0,0,0,0,0,0,0,0,0,0,0,0,0,0,0,0,0,0,0,0,0,0,0,0,0,0,0,0,0,0,0,0,0,0,0,0,0,0,0,0,0,0,0,0,0,0,0,0,0,0,0,0,0,0,0,0,0,0,0,0,0,0,0,0,0,0,0,0,0,0,0,0,0,0,0,0,0,0,0,0,0,0,0,0,0,0,0,0,0,0,0,0,0,0,0,0,0,0,0,0,0,0,0,0,0,0,0,0,0,0,0,0,0,0,0,0,0,0,0,0,0,0,0,0,0,0,0,0,0,0,0,0,0,0,0,0,0,0,0,0,0,0,0,0,0,0,0,0,0,0,0],"trees":[{"base_weights":[3.208063E4,2.7129002E4,3.4554582E4,3.0229516E4,2.6423002E4,3.330565E4,3.8041156E4,2.9687924E2,3.399035E2,2.577123E2,2.8998438E2,3.4476807E2,3.0553137E2,3.49556E2,3.986372E2],"categories":[],"categories_nodes":[],"categories_segments":[],"categories_sizes":[],"default_left":[0,0,1,0,0,0,0,0,0,0,0,0,0,0,0],"id":0,"left_children":[1,3,5,7,9,11,13,-1,-1,-1,-1,-1,-1,-1,-1],"loss_changes":[1.7797103E12,1.0521831E11,4.2079774E11,1.7273717E10,6.5487766E10,2.2902578E11,1.4232112E11,0E0,0E0,0E0,0E0,0E0,0E0,0E0,0E0],"parents":[2147483647,0,0,1,1,2,2,3,3,4,4,5,5,6,6],"right_children":[2,4,6,8,10,12,14,-1,-1,-1,-1,-1,-1,-1,-1],"split_conditions":[8E0,6.7E1,3.5118E4,7E0,3.6698E4,5E0,1.68E2,2.9687924E2,3.399035E2,2.577123E2,2.8998438E2,3.4476807E2,3.0553137E2,3.49556E2,3.986372E2],"split_indices":[1,0,6,1,6,2,0,0,0,0,0,0,0,0,0],"split_type":[0,0,0,0,0,0,0,0,0,0,0,0,0,0,0],"sum_hessian":[1.45357E5,4.8432E4,9.6925E4,8.975E3,3.9457E4,7.137E4,2.5555E4,7.853E3,1.122E3,3.1497E4,7.96E3,5.0059E4,2.1311E4,9.497E3,1.6058E4],"tree_param":{"num_deleted":"0","num_feature":"9","num_nodes":"15","size_leaf_vector":"1"}},{"base_weights":[3.1759842E4,2.6857736E4,3.420905E4,2.9927293E4,2.6158785E4,3.2984293E4,3.7693914E4,2.9391083E2,3.365075E2,2.5513525E2,2.870849E2,3.4142944E2,3.0257077E2,3.4619495E2,3.9492242E2],"categories":[],"categories_nodes":[],"categories_segments":[],"categories_sizes":[],"default_left":[0,0,1,0,0,0,0,0,0,0,0,0,0,0,0],"id":1,"left_children":[1,3,5,7,9,11,13,-1,-1,-1,-1,-1,-1,-1,-1],"loss_changes":[1.7442936E12,1.0312955E11,4.124427E11,1.6931881E10,6.4185434E10,2.2562839E11,1.3795066E11,0E0,0E0,0E0,0E0,0E0,0E0,0E0,0E0],"parents":[2147483647,0,0,1,1,2,2,3,3,4,4,5,5,6,6],"right_children":[2,4,6,8,10,12,14,-1,-1,-1,-1,-1,-1,-1,-1],"split_conditions":[8E0,6.7E1,3.5197E4,7E0,3.6698E4,5E0,1.68E2,2.9391083E2,3.365075E2,2.5513525E2,2.870849E2,3.4142944E2,3.0257077E2,3.4619495E2,3.9492242E2],"split_indices":[1,0,6,1,6,2,0,0,0,0,0,0,0,0,0],"split_type":[0,0,0,0,0,0,0,0,0,0,0,0,0,0,0],"sum_hessian":[1.45357E5,4.8432E4,9.6925E4,8.975E3,3.9457E4,7.1727E4,2.5198E4,7.853E3,1.122E3,3.1497E4,7.96E3,5.0332E4,2.1395E4,9.307E3,1.5891E4],"tree_param":{"num_deleted":"0","num_feature":"9","num_nodes":"15","size_leaf_vector":"1"}},{"base_weights":[3.1442262E4,2.6589184E4,3.3866973E4,2.962809E4,2.589721E4,3.264278E4,3.728449E4,2.9097214E2,3.3314542E2,2.5258398E2,2.8421442E2,3.3790625E2,2.9945065E2,3.4085867E2,3.8975162E2],"categories":[],"categories_nodes":[],"categories_segments":[],"categories_sizes":[],"default_left":[0,0,1,0,0,0,0,0,0,0,0,0,0,0,0],"id":2,"left_children":[1,3,5,7,9,11,13,-1,-1,-1,-1,-1,-1,-1,-1],"loss_changes":[1.7095648E12,1.0107853E11,4.0428896E11,1.6597385E10,6.2910366E10,2.1999963E11,1.3687692E11,0E0,0E0,0E0,0E0,0E0,0E0,0E0,0E0],"parents":[2147483647,0,0,1,1,2,2,3,3,4,4,5,5,6,6],"right_children":[2,4,6,8,10,12,14,-1,-1,-1,-1,-1,-1,-1,-1],"split_conditions":[8E0,6.7E1,3.5118E4,7E0,3.6698E4,5E0,1.58E2,2.9097214E2,3.3314542E2,2.5258398E2,2.8421442E2,3.3790625E2,2.9945065E2,3.4085867E2,3.8975162E2],"split_indices":[1,0,6,1,6,2,0,0,0,0,0,0,0,0,0],"split_type":[0,0,0,0,0,0,0,0,0,0,0,0,0,0,0],"sum_hessian":[1.45357E5,4.8432E4,9.6925E4,8.975E3,3.9457E4,7.137E4,2.5555E4,7.853E3,1.122E3,3.1497E4,7.96E3,5.0059E4,2.1311E4,8.844E3,1.6711E4],"tree_param":{"num_deleted":"0","num_feature":"9","num_nodes":"15","size_leaf_vector":"1"}},{"base_weights":[3.1127855E4,2.6323314E4,3.3528316E4,2.9331879E4,2.5638252E4,3.233947E4,3.6978184E4,2.8806277E2,3.2981696E2,2.497785E2,2.803231E2,3.3474408E2,2.9665625E2,3.3942596E2,3.8735358E2],"categories":[],"categories_nodes":[],"categories_segments":[],"categories_sizes":[],"default_left":[0,0,1,0,0,0,0,0,0,0,0,0,0,0,0],"id":3,"left_children":[1,3,5,7,9,11,13,-1,-1,-1,-1,-1,-1,-1,-1],"loss_changes":[1.6755573E12,9.907156E10,3.9632817E11,1.6268132E10,6.168353E10,2.1779343E11,1.3115379E11,0E0,0E0,0E0,0E0,0E0,0E0,0E0,0E0],"parents":[2147483647,0,0,1,1,2,2,3,3,4,4,5,5,6,6],"right_children":[2,4,6,8,10,12,14,-1,-1,-1,-1,-1,-1,-1,-1],"split_conditions":[8E0,6.7E1,3.528E4,7E0,3.6295E4,5E0,1.68E2,2.8806277E2,3.2981696E2,2.497785E2,2.803231E2,3.3474408E2,2.9665625E2,3.3942596E2,3.8735358E2],"split_indices":[1,0,6,1,6,2,0,0,0,0,0,0,0,0,0],"split_type":[0,0,0,0,0,0,0,0,0,0,0,0,0,0,0],"sum_hessian":[1.45357E5,4.8432E4,9.6925E4,8.975E3,3.9457E4,7.2092E4,2.4833E4,7.853E3,1.122E3,3.0935E4,8.522E3,5.0602E4,2.149E4,9.112E3,1.5721E4],"tree_param":{"num_deleted":"0","num_feature":"9","num_nodes":"15","size_leaf_vector":"1"}},{"base_weights":[3.0816594E4,2.6060105E4,3.319305E4,2.9038629E4,2.5381883E4,3.1958104E4,3.644857E4,2.851825E2,3.265217E2,2.4755505E2,2.7856973E2,3.308944E2,2.9308243E2,3.337525E2,3.812174E2],"categories":[],"categories_nodes":[],"categories_segments":[],"categories_sizes":[],"default_left":[0,0,1,0,0,0,0,0,0,0,0,0,0,0,0],"id":4,"left_children":[1,3,5,7,9,11,13,-1,-1,-1,-1,-1,-1,-1,-1],"loss_changes":[1.6422042E12,9.710233E10,3.8851E11,1.5946744E10,6.048396E10,2.097152E11,1.3576123E11,0E0,0E0,0E0,0E0,0E0,0E0,0E0,0E0],"parents":[2147483647,0,0,1,1,2,2,3,3,4,4,5,5,6,6],"right_children":[2,4,6,8,10,12,14,-1,-1,-1,-1,-1,-1,-1,-1],"split_conditions":[8E0,6.7E1,3.4869E4,7E0,3.6698E4,5E0,1.58E2,2.851825E2,3.265217E2,2.4755505E2,2.7856973E2,3.308944E2,2.9308243E2,3.337525E2,3.812174E2],"split_indices":[1,0,6,1,6,2,0,0,0,0,0,0,0,0,0],"split_type":[0,0,0,0,0,0,0,0,0,0,0,0,0,0,0],"sum_hessian":[1.45357E5,4.8432E4,9.6925E4,8.975E3,3.9457E4,7.0277E4,2.6648E4,7.853E3,1.122E3,3.1497E4,7.96E3,4.9242E4,2.1035E4,9.401E3,1.7247E4],"tree_param":{"num_deleted":"0","num_feature":"9","num_nodes":"15","size_leaf_vector":"1"}},{"base_weights":[3.0508445E4,2.5799527E4,3.2861133E4,2.8748309E4,2.5128078E4,3.169557E4,3.624343E4,2.8233102E2,3.232594E2,2.4480533E2,2.7475528E2,3.280808E2,2.907456E2,3.3266183E2,3.7966837E2],"categories":[],"categories_nodes":[],"categories_segments":[],"categories_sizes":[],"default_left":[0,0,1,0,0,0,0,0,0,0,0,0,0,0,0],"id":5,"left_children":[1,3,5,7,9,11,13,-1,-1,-1,-1,-1,-1,-1,-1],"loss_changes":[1.6095138E12,9.517295E10,3.8095186E11,1.5631647E10,5.930536E10,2.0926222E11,1.2616257E11,0E0,0E0,0E0,0E0,0E0,0E0,0E0,0E0],"parents":[2147483647,0,0,1,1,2,2,3,3,4,4,5,5,6,6],"right_children":[2,4,6,8,10,12,14,-1,-1,-1,-1,-1,-1,-1,-1],"split_conditions":[8E0,6.7E1,3.528E4,7E0,3.6295E4,5E0,1.68E2,2.8233102E2,3.232594E2,2.4480533E2,2.7475528E2,3.280808E2,2.907456E2,3.3266183E2,3.7966837E2],"split_indices":[1,0,6,1,6,2,0,0,0,0,0,0,0,0,0],"split_type":[0,0,0,0,0,0,0,0,0,0,0,0,0,0,0],"sum_hessian":[1.45357E5,4.8432E4,9.6925E4,8.975E3,3.9457E4,7.2092E4,2.4833E4,7.853E3,1.122E3,3.0935E4,8.522E3,5.0602E4,2.149E4,9.112E3,1.5721E4],"tree_param":{"num_deleted":"0","num_feature":"9","num_nodes":"15","size_leaf_vector":"1"}},{"base_weights":[3.0203379E4,2.5541557E4,3.2532535E4,2.8460895E4,2.487681E4,3.1321629E4,3.572468E4,2.795081E2,3.2002966E2,2.4262628E2,2.7303717E2,3.2430478E2,2.8724442E2,3.2710278E2,3.7365778E2],"categories":[],"categories_nodes":[],"categories_segments":[],"categories_sizes":[],"default_left":[0,0,1,0,0,0,0,0,0,0,0,0,0,0,0],"id":6,"left_children":[1,3,5,7,9,11,13,-1,-1,-1,-1,-1,-1,-1,-1],"loss_changes":[1.5774777E12,9.328132E10,3.7353633E11,1.5322841E10,5.8151928E10,2.01465E11,1.3060853E11,0E0,0E0,0E0,0E0,0E0,0E0,0E0,0E0],"parents":[2147483647,0,0,1,1,2,2,3,3,4,4,5,5,6,6],"right_children":[2,4,6,8,10,12,14,-1,-1,-1,-1,-1,-1,-1,-1],"split_conditions":[8E0,6.7E1,3.4869E4,7E0,3.6698E4,5E0,1.58E2,2.795081E2,3.2002966E2,2.4262628E2,2.7303717E2,3.2430478E2,2.8724442E2,3.2710278E2,3.7365778E2],"split_indices":[1,0,6,1,6,2,0,0,0,0,0,0,0,0,0],"split_type":[0,0,0,0,0,0,0,0,0,0,0,0,0,0,0],"sum_hessian":[1.45357E5,4.8432E4,9.6925E4,8.975E3,3.9457E4,7.0277E4,2.6648E4,7.853E3,1.122E3,3.1497E4,7.96E3,4.9242E4,2.1035E4,9.401E3,1.7247E4],"tree_param":{"num_deleted":"0","num_feature":"9","num_nodes":"15","size_leaf_vector":"1"}},{"base_weights":[2.9901361E4,2.5286162E4,3.2207223E4,2.8176352E4,2.4628055E4,3.106449E4,3.5523273E4,2.7671335E2,3.168322E2,2.3993117E2,2.6929803E2,3.2155017E2,2.849527E2,3.2603244E2,3.721356E2],"categories":[],"categories_nodes":[],"categories_segments":[],"categories_sizes":[],"default_left":[0,0,1,0,0,0,0,0,0,0,0,0,0,0,0],"id":7,"left_children":[1,3,5,7,9,11,13,-1,-1,-1,-1,-1,-1,-1,-1],"loss_changes":[1.5460876E12,9.142744E10,3.6617952E11,1.5019803E10,5.7019466E10,2.0107913E11,1.2135799E11,0E0,0E0,0E0,0E0,0E0,0E0,0E0,0E0],"parents":[2147483647,0,0,1,1,2,2,3,3,4,4,5,5,6,6],"right_children":[2,4,6,8,10,12,14,-1,-1,-1,-1,-1,-1,-1,-1],"split_conditions":[8E0,6.7E1,3.528E4,7E0,3.6295E4,5E0,1.68E2,2.7671335E2,3.168322E2,2.3993117E2,2.6929803E2,3.2155017E2,2.849527E2,3.2603244E2,3.721356E2],"split_indices":[1,0,6,1,6,2,0,0,0,0,0,0,0,0,0],"split_type":[0,0,0,0,0,0,0,0,0,0,0,0,0,0,0],"sum_hessian":[1.45357E5,4.8432E4,9.6925E4,8.975E3,3.9457E4,7.2092E4,2.4833E4,7.853E3,1.122E3,3.0935E4,8.522E3,5.0602E4,2.149E4,9.112E3,1.5721E4],"tree_param":{"num_deleted":"0","num_feature":"9","num_nodes":"15","size_leaf_vector":"1"}},{"base_weights":[2.9602363E4,2.5033324E4,3.1885164E4,2.7894654E4,2.4381787E4,3.069783E4,3.501517E4,2.7394656E2,3.1366672E2,2.377956E2,2.6761453E2,3.1784637E2,2.8152274E2,3.2058557E2,3.662481E2],"categories":[],"categories_nodes":[],"categories_segments":[],"categories_sizes":[],"default_left":[0,0,1,0,0,0,0,0,0,0,0,0,0,0,0],"id":8,"left_children":[1,3,5,7,9,11,13,-1,-1,-1,-1,-1,-1,-1,-1],"loss_changes":[1.5153098E12,8.960921E10,3.591331E11,1.4723056E10,5.5910072E10,1.9352938E11,1.2565086E11,0E0,0E0,0E0,0E0,0E0,0E0,0E0,0E0],"parents":[2147483647,0,0,1,1,2,2,3,3,4,4,5,5,6,6],"right_children":[2,4,6,8,10,12,14,-1,-1,-1,-1,-1,-1,-1,-1],"split_conditions":[8E0,6.7E1,3.4869E4,7E0,3.6698E4,5E0,1.58E2,2.7394656E2,3.1366672E2,2.377956E2,2.6761453E2,3.1784637E2,2.8152274E2,3.2058557E2,3.662481E2],"split_indices":[1,0,6,1,6,2,0,0,0,0,0,0,0,0,0],"split_type":[0,0,0,0,0,0,0,0,0,0,0,0,0,0,0],"sum_hessian":[1.45357E5,4.8432E4,9.6925E4,8.975E3,3.9457E4,7.0277E4,2.6648E4,7.853E3,1.122E3,3.1497E4,7.96E3,4.9242E4,2.1035E4,9.401E3,1.7247E4],"tree_param":{"num_deleted":"0","num_feature":"9","num_nodes":"15","size_leaf_vector":"1"}},{"base_weights":[2.9306355E4,2.4783014E4,3.1566324E4,2.7615773E4,2.4137982E4,3.0424012E4,3.475526E4,2.7120746E2,3.1053284E2,2.3515405E2,2.6394922E2,3.149409E2,2.7909064E2,3.1928745E2,3.6424823E2],"categories":[],"categories_nodes":[],"categories_segments":[],"categories_sizes":[],"default_left":[0,0,1,0,0,0,0,0,0,0,0,0,0,0,0],"id":9,"left_children":[1,3,5,7,9,11,13,-1,-1,-1,-1,-1,-1,-1,-1],"loss_changes":[1.4851527E12,8.782663E10,3.5202793E11,1.44326E10,5.4823748E10,1.9119315E11,1.19437E11,0E0,0E0,0E0,0E0,0E0,0E0,0E0,0E0],"parents":[2147483647,0,0,1,1,2,2,3,3,4,4,5,5,6,6],"right_children":[2,4,6,8,10,12,14,-1,-1,-1,-1,-1,-1,-1,-1],"split_conditions":[8E0,6.7E1,3.5118E4,7E0,3.6295E4,5E0,1.68E2,2.7120746E2,3.1053284E2,2.3515405E2,2.6394922E2,3.149409E2,2.7909064E2,3.1928745E2,3.6424823E2],"split_indices":[1,0,6,1,6,2,0,0,0,0,0,0,0,0,0],"split_type":[0,0,0,0,0,0,0,0,0,0,0,0,0,0,0],"sum_hessian":[1.45357E5,4.8432E4,9.6925E4,8.975E3,3.9457E4,7.137E4,2.5555E4,7.853E3,1.122E3,3.0935E4,8.522E3,5.0059E4,2.1311E4,9.497E3,1.6058E4],"tree_param":{"num_deleted":"0","num_feature":"9","num_nodes":"15","size_leaf_vector":"1"}},{"base_weights":[2.9013309E4,2.4535205E4,3.1250676E4,2.733968E4,2.3896615E4,3.005244E4,3.4232074E4,2.6849573E2,3.074303E2,2.3306113E2,2.6229956E2,3.1126193E2,2.7543594E2,3.1383264E2,3.5833063E2],"categories":[],"categories_nodes":[],"categories_segments":[],"categories_sizes":[],"default_left":[0,0,1,0,0,0,0,0,0,0,0,0,0,0,0],"id":10,"left_children":[1,3,5,7,9,11,13,-1,-1,-1,-1,-1,-1,-1,-1],"loss_changes":[1.4555996E12,8.608809E10,3.4522477E11,1.4146339E10,5.37542E10,1.854176E11,1.2557746E11,0E0,0E0,0E0,0E0,0E0,0E0,0E0,0E0],"parents":[2147483647,0,0,1,1,2,2,3,3,4,4,5,5,6,6],"right_children":[2,4,6,8,10,12,14,-1,-1,-1,-1,-1,-1,-1,-1],"split_conditions":[8E0,6.7E1,3.4638E4,7E0,3.6698E4,5E0,1.58E2,2.6849573E2,3.074303E2,2.3306113E2,2.6229956E2,3.1126193E2,2.7543594E2,3.1383264E2,3.5833063E2],"split_indices":[1,0,6,1,6,2,0,0,0,0,0,0,0,0,0],"split_type":[0,0,0,0,0,0,0,0,0,0,0,0,0,0,0],"sum_hessian":[1.45357E5,4.8432E4,9.6925E4,8.975E3,3.9457E4,6.9146E4,2.7779E4,7.853E3,1.122E3,3.1497E4,7.96E3,4.8414E4,2.0732E4,1.0002E4,1.7777E4],"tree_param":{"num_deleted":"0","num_feature":"9","num_nodes":"15","size_leaf_vector":"1"}},{"base_weights":[2.8723193E4,2.4289877E4,3.0938182E4,2.7066348E4,2.3657662E4,2.9871617E4,3.422458E4,2.6581113E2,3.0435873E2,2.3047206E2,2.587066E2,3.0916394E2,2.7402386E2,3.1357748E2,3.5832715E2],"categories":[],"categories_nodes":[],"categories_segments":[],"categories_sizes":[],"default_left":[0,0,1,0,0,0,0,0,0,0,0,0,0,0,0],"id":11,"left_children":[1,3,5,7,9,11,13,-1,-1,-1,-1,-1,-1,-1,-1],"loss_changes":[1.4266254E12,8.437681E10,3.387236E11,1.3866893E10,5.270772E10,1.8795096E11,1.0833258E11,0E0,0E0,0E0,0E0,0E0,0E0,0E0,0E0],"parents":[2147483647,0,0,1,1,2,2,3,3,4,4,5,5,6,6],"right_children":[2,4,6,8,10,12,14,-1,-1,-1,-1,-1,-1,-1,-1],"split_conditions":[8E0,6.7E1,3.5538E4,7E0,3.6295E4,5E0,1.68E2,2.6581113E2,3.0435873E2,2.3047206E2,2.587066E2,3.0916394E2,2.7402386E2,3.1357748E2,3.5832715E2],"split_indices":[1,0,6,1,6,2,0,0,0,0,0,0,0,0,0],"split_type":[0,0,0,0,0,0,0,0,0,0,0,0,0,0,0],"sum_hessian":[1.45357E5,4.8432E4,9.6925E4,8.975E3,3.9457E4,7.3184E4,2.3741E4,7.853E3,1.122E3,3.0935E4,8.522E3,5.1417E4,2.1767E4,8.539E3,1.5202E4],"tree_param":{"num_deleted":"0","num_feature":"9","num_nodes":"15","size_leaf_vector":"1"}},{"base_weights":[2.8435977E4,2.4047E4,3.0628812E4,2.679575E4,2.3421098E4,2.94533E4,3.355367E4,2.6315335E2,3.0131784E2,2.2919217E2,2.6067438E2,3.050578E2,2.6994162E2,3.075865E2,3.5124432E2],"categories":[],"categories_nodes":[],"categories_segments":[],"categories_sizes":[],"default_left":[0,0,1,0,0,0,0,0,0,0,0,0,0,0,0],"id":12,"left_children":[1,3,5,7,9,11,13,-1,-1,-1,-1,-1,-1,-1,-1],"loss_changes":[1.39823E12,8.269909E10,3.3226437E11,1.3592166E10,5.181014E10,1.7814048E11,1.20884036E11,0E0,0E0,0E0,0E0,0E0,0E0,0E0,0E0],"parents":[2147483647,0,0,1,1,2,2,3,3,4,4,5,5,6,6],"right_children":[2,4,6,8,10,12,14,-1,-1,-1,-1,-1,-1,-1,-1],"split_conditions":[8E0,6.7E1,3.4638E4,7E0,3.809E4,5E0,1.58E2,2.6315335E2,3.0131784E2,2.2919217E2,2.6067438E2,3.050578E2,2.6994162E2,3.075865E2,3.5124432E2],"split_indices":[1,0,6,1,6,2,0,0,0,0,0,0,0,0,0],"split_type":[0,0,0,0,0,0,0,0,0,0,0,0,0,0,0],"sum_hessian":[1.45357E5,4.8432E4,9.6925E4,8.975E3,3.9457E4,6.9146E4,2.7779E4,7.853E3,1.122E3,3.3175E4,6.282E3,4.8414E4,2.0732E4,1.0002E4,1.7777E4],"tree_param":{"num_deleted":"0","num_feature":"9","num_nodes":"15","size_leaf_vector":"1"}},{"base_weights":[2.8151633E4,2.380655E4,3.0322537E4,2.6527854E4,2.3186898E4,2.9330268E4,3.372076E4,2.6052216E2,2.9830734E2,2.1513536E2,2.3973969E2,3.0351105E2,2.6903088E2,3.0800977E2,3.5257397E2],"categories":[],"categories_nodes":[],"categories_segments":[],"categories_sizes":[],"default_left":[0,0,1,0,0,0,0,0,0,0,0,0,0,0,0],"id":13,"left_children":[1,3,5,7,9,11,13,-1,-1,-1,-1,-1,-1,-1,-1],"loss_changes":[1.370405E12,8.1054925E10,3.258387E11,1.3323731E10,5.1453624E10,1.8507786E11,9.716734E10,0E0,0E0,0E0,0E0,0E0,0E0,0E0,0E0],"parents":[2147483647,0,0,1,1,2,2,3,3,4,4,5,5,6,6],"right_children":[2,4,6,8,10,12,14,-1,-1,-1,-1,-1,-1,-1,-1],"split_conditions":[8E0,6.7E1,3.6004E4,7E0,1.6E2,5E0,1.68E2,2.6052216E2,2.9830734E2,2.1513536E2,2.3973969E2,3.0351105E2,2.6903088E2,3.0800977E2,3.5257397E2],"split_indices":[1,0,6,1,0,2,0,0,0,0,0,0,0,0,0],"split_type":[0,0,0,0,0,0,0,0,0,0,0,0,0,0,0],"sum_hessian":[1.45357E5,4.8432E4,9.6925E4,8.975E3,3.9457E4,7.5027E4,2.1898E4,7.853E3,1.122E3,1.2631E4,2.6826E4,5.2806E4,2.2221E4,7.558E3,1.434E4],"tree_param":{"num_deleted":"0","num_feature":"9","num_nodes":"15","size_leaf_vector":"1"}},{"base_weights":[2.787013E4,2.3568506E4,3.0019324E4,2.6262639E4,2.2955041E4,2.8865605E4,3.2889957E4,2.5791727E2,2.9532693E2,2.2319586E2,2.4996597E2,2.9897223E2,2.6455215E2,3.0147064E2,3.4431424E2],"categories":[],"categories_nodes":[],"categories_segments":[],"categories_sizes":[],"default_left":[0,0,1,0,0,0,0,0,0,0,0,0,0,0,0],"id":14,"left_children":[1,3,5,7,9,11,13,-1,-1,-1,-1,-1,-1,-1,-1],"loss_changes":[1.3431336E12,7.944431E10,3.2005895E11,1.3060538E10,5.0633638E10,1.7114857E11,1.164192E11,0E0,0E0,0E0,0E0,0E0,0E0,0E0,0E0],"parents":[2147483647,0,0,1,1,2,2,3,3,4,4,5,5,6,6],"right_children":[2,4,6,8,10,12,14,-1,-1,-1,-1,-1,-1,-1,-1],"split_conditions":[8E0,6.7E1,3.4638E4,7E0,3.5719E4,5E0,1.58E2,2.5791727E2,2.9532693E2,2.2319586E2,2.4996597E2,2.9897223E2,2.6455215E2,3.0147064E2,3.4431424E2],"split_indices":[1,0,6,1,6,2,0,0,0,0,0,0,0,0,0],"split_type":[0,0,0,0,0,0,0,0,0,0,0,0,0,0,0],"sum_hessian":[1.45357E5,4.8432E4,9.6925E4,8.975E3,3.9457E4,6.9146E4,2.7779E4,7.853E3,1.122E3,3.01E4,9.357E3,4.8414E4,2.0732E4,1.0002E4,1.7777E4],"tree_param":{"num_deleted":"0","num_feature":"9","num_nodes":"15","size_leaf_vector":"1"}},{"base_weights":[2.7591445E4,2.3332842E4,2.9719143E4,2.6000072E4,2.2725504E4,2.8808191E4,3.3285066E4,2.5533841E2,2.9237628E2,2.1073117E2,2.3502713E2,2.9806006E2,2.6421796E2,3.4164423E2,2.8337012E2],"categories":[],"categories_nodes":[],"categories_segments":[],"categories_sizes":[],"default_left":[0,0,1,0,0,0,0,0,0,0,0,0,0,0,0],"id":15,"left_children":[1,3,5,7,9,11,13,-1,-1,-1,-1,-1,-1,-1,-1],"loss_changes":[1.3164075E12,7.786306E10,3.1388493E11,1.2802589E10,5.0178556E10,1.8307298E11,8.481931E10,0E0,0E0,0E0,0E0,0E0,0E0,0E0,0E0],"parents":[2147483647,0,0,1,1,2,2,3,3,4,4,5,5,6,6],"right_children":[2,4,6,8,10,12,14,-1,-1,-1,-1,-1,-1,-1,-1],"split_conditions":[8E0,6.7E1,3.6592E4,7E0,1.6E2,5E0,2.55E2,2.5533841E2,2.9237628E2,2.1073117E2,2.3502713E2,2.9806006E2,2.6421796E2,3.4164423E2,2.8337012E2],"split_indices":[1,0,6,1,0,2,0,0,0,0,0,0,0,0,0],"split_type":[0,0,0,0,0,0,0,0,0,0,0,0,0,0,0],"sum_hessian":[1.45357E5,4.8432E4,9.6925E4,8.975E3,3.9457E4,7.721E4,1.9715E4,7.853E3,1.122E3,1.2631E4,2.6826E4,5.4437E4,2.2773E4,1.6735E4,2.98E3],"tree_param":{"num_deleted":"0","num_feature":"9","num_nodes":"15","size_leaf_vector":"1"}},{"base_weights":[2.7315547E4,2.3099535E4,2.9421965E4,2.5716432E4,2.2492703E4,2.8114455E4,3.1866967E4,2.5253575E2,2.8930215E2,2.082738E2,2.3267694E2,2.9157727E2,2.572327E2,2.9374057E2,3.3443686E2],"categories":[],"categories_nodes":[],"categories_segments":[],"categories_sizes":[],"default_left":[0,0,1,0,0,0,0,0,0,0,0,0,0,0,0],"id":16,"left_children":[1,3,5,7,9,11,13,-1,-1,-1,-1,-1,-1,-1,-1],"loss_changes":[1.2901931E12,7.633633E10,3.089692E11,1.2820939E10,5.0266636E10,1.5681664E11,1.317368E11,0E0,0E0,0E0,0E0,0E0,0E0,0E0,0E0],"parents":[2147483647,0,0,1,1,2,2,3,3,4,4,5,5,6,6],"right_children":[2,4,6,8,10,12,14,-1,-1,-1,-1,-1,-1,-1,-1],"split_conditions":[8E0,6.8E1,3.3483E4,7E0,1.6E2,5E0,1.58E2,2.5253575E2,2.8930215E2,2.082738E2,2.3267694E2,2.9157727E2,2.572327E2,2.9374057E2,3.3443686E2],"split_indices":[1,0,6,1,0,2,0,0,0,0,0,0,0,0,0],"split_type":[0,0,0,0,0,0,0,0,0,0,0,0,0,0,0],"sum_hessian":[1.45357E5,4.8432E4,9.6925E4,9.109E3,3.9323E4,6.3161E4,3.3764E4,7.97E3,1.139E3,1.2497E4,2.6826E4,4.3967E4,1.9194E4,1.3089E4,2.0675E4],"tree_param":{"num_deleted":"0","num_feature":"9","num_nodes":"15","size_leaf_vector":"1"}},{"base_weights":[2.7042404E4,2.2868559E4,2.9127758E4,2.5459326E4,2.2267787E4,2.8005117E4,3.1921066E4,2.500107E2,2.8641165E2,2.1789893E2,2.4927791E2,2.9006628E2,2.5665067E2,2.923196E2,3.3432327E2],"categories":[],"categories_nodes":[],"categories_segments":[],"categories_sizes":[],"default_left":[0,0,1,0,0,0,0,0,0,0,0,0,0,0,0],"id":17,"left_children":[1,3,5,7,9,11,13,-1,-1,-1,-1,-1,-1,-1,-1],"loss_changes":[1.264524E12,7.4817995E10,3.0305524E11,1.2567183E10,4.9444553E10,1.6130454E11,1.1191871E11,0E0,0E0,0E0,0E0,0E0,0E0,0E0,0E0],"parents":[2147483647,0,0,1,1,2,2,3,3,4,4,5,5,6,6],"right_children":[2,4,6,8,10,12,14,-1,-1,-1,-1,-1,-1,-1,-1],"split_conditions":[8E0,6.8E1,3.4638E4,7E0,3.8351E4,5E0,1.58E2,2.500107E2,2.8641165E2,2.1789893E2,2.4927791E2,2.9006628E2,2.5665067E2,2.923196E2,3.3432327E2],"split_indices":[1,0,6,1,6,2,0,0,0,0,0,0,0,0,0],"split_type":[0,0,0,0,0,0,0,0,0,0,0,0,0,0,0],"sum_hessian":[1.45357E5,4.8432E4,9.6925E4,9.109E3,3.9323E4,6.9146E4,2.7779E4,7.97E3,1.139E3,3.3342E4,5.981E3,4.8414E4,2.0732E4,1.0002E4,1.7777E4],"tree_param":{"num_deleted":"0","num_feature":"9","num_nodes":"15","size_leaf_vector":"1"}},{"base_weights":[2.6771996E4,2.2639895E4,2.8836492E4,2.5228496E4,2.2050459E4,2.7553412E4,3.123581E4,2.4776053E2,2.8370312E2,2.1429346E2,2.4045976E2,2.8576096E2,2.5209416E2,2.8790582E2,3.2782373E2],"categories":[],"categories_nodes":[],"categories_segments":[],"categories_sizes":[],"default_left":[0,0,1,0,0,0,0,0,0,0,0,0,0,0,0],"id":18,"left_children":[1,3,5,7,9,11,13,-1,-1,-1,-1,-1,-1,-1,-1],"loss_changes":[1.2393497E12,7.33437E10,2.9752715E11,1.2056527E10,4.8389685E10,1.5069295E11,1.2674767E11,0E0,0E0,0E0,0E0,0E0,0E0,0E0,0E0],"parents":[2147483647,0,0,1,1,2,2,3,3,4,4,5,5,6,6],"right_children":[2,4,6,8,10,12,14,-1,-1,-1,-1,-1,-1,-1,-1],"split_conditions":[8E0,6.7E1,3.3483E4,7E0,3.5719E4,5E0,1.58E2,2.4776053E2,2.8370312E2,2.1429346E2,2.4045976E2,2.8576096E2,2.5209416E2,2.8790582E2,3.2782373E2],"split_indices":[1,0,6,1,6,2,0,0,0,0,0,0,0,0,0],"split_type":[0,0,0,0,0,0,0,0,0,0,0,0,0,0,0],"sum_hessian":[1.45357E5,4.8432E4,9.6925E4,8.975E3,3.9457E4,6.3161E4,3.3764E4,7.853E3,1.122E3,3.01E4,9.357E3,4.3967E4,1.9194E4,1.3089E4,2.0675E4],"tree_param":{"num_deleted":"0","num_feature":"9","num_nodes":"15","size_leaf_vector":"1"}},{"base_weights":[2.6504291E4,2.2413516E4,2.8548139E4,2.4976271E4,2.1829967E4,2.7668385E4,3.1991947E4,2.429221E2,2.7016412E2,2.0218094E2,2.2588132E2,2.862984E2,2.5368947E2,3.2868958E2,2.7057486E2],"categories":[],"categories_nodes":[],"categories_segments":[],"categories_sizes":[],"default_left":[0,0,1,0,0,0,0,0,0,0,0,0,0,0,0],"id":19,"left_children":[1,3,5,7,9,11,13,-1,-1,-1,-1,-1,-1,-1,-1],"loss_changes":[1.2146872E12,7.188408E10,2.927708E11,1.1870405E10,4.7764734E10,1.6997417E11,8.443344E10,0E0,0E0,0E0,0E0,0E0,0E0,0E0,0E0],"parents":[2147483647,0,0,1,1,2,2,3,3,4,4,5,5,6,6],"right_children":[2,4,6,8,10,12,14,-1,-1,-1,-1,-1,-1,-1,-1],"split_conditions":[8E0,6.7E1,3.6592E4,6E0,1.6E2,5E0,2.55E2,2.429221E2,2.7016412E2,2.0218094E2,2.2588132E2,2.862984E2,2.5368947E2,3.2868958E2,2.7057486E2],"split_indices":[1,0,6,1,0,2,0,0,0,0,0,0,0,0,0],"split_type":[0,0,0,0,0,0,0,0,0,0,0,0,0,0,0],"sum_hessian":[1.45357E5,4.8432E4,9.6925E4,8.975E3,3.9457E4,7.721E4,1.9715E4,6.731E3,2.244E3,1.2631E4,2.6826E4,5.4437E4,2.2773E4,1.6735E4,2.98E3],"tree_param":{"num_deleted":"0","num_feature":"9","num_nodes":"15","size_leaf_vector":"1"}},{"base_weights":[2.6239264E4,2.21894E4,2.826267E4,2.4704014E4,2.160629E4,2.7001502E4,3.0621016E4,2.4257607E2,2.780365E2,1.9981863E2,2.2362262E2,2.8004053E2,2.4703659E2,2.820207E2,3.215097E2],"categories":[],"categories_nodes":[],"categories_segments":[],"categories_sizes":[],"default_left":[0,0,1,0,0,0,0,0,0,0,0,0,0,0,0],"id":20,"left_children":[1,3,5,7,9,11,13,-1,-1,-1,-1,-1,-1,-1,-1],"loss_changes":[1.1905112E12,7.048318E10,2.8746082E11,1.1931746E10,4.7844426E10,1.4481673E11,1.2405493E11,0E0,0E0,0E0,0E0,0E0,0E0,0E0,0E0],"parents":[2147483647,0,0,1,1,2,2,3,3,4,4,5,5,6,6],"right_children":[2,4,6,8,10,12,14,-1,-1,-1,-1,-1,-1,-1,-1],"split_conditions":[8E0,6.8E1,3.3483E4,7E0,1.6E2,5E0,1.58E2,2.4257607E2,2.780365E2,1.9981863E2,2.2362262E2,2.8004053E2,2.4703659E2,2.820207E2,3.215097E2],"split_indices":[1,0,6,1,0,2,0,0,0,0,0,0,0,0,0],"split_type":[0,0,0,0,0,0,0,0,0,0,0,0,0,0,0],"sum_hessian":[1.45357E5,4.8432E4,9.6925E4,9.109E3,3.9323E4,6.3161E4,3.3764E4,7.97E3,1.139E3,1.2497E4,2.6826E4,4.3967E4,1.9194E4,1.3089E4,2.0675E4],"tree_param":{"num_deleted":"0","num_feature":"9","num_nodes":"15","size_leaf_vector":"1"}},{"base_weights":[2.5976885E4,2.1967525E4,2.7980055E4,2.4457027E4,2.1390236E4,2.7116045E4,3.1362234E4,2.3782361E2,2.6468814E2,2.0922887E2,2.3991612E2,2.805949E2,2.4859679E2,3.2232544E2,2.64656E2],"categories":[],"categories_nodes":[],"categories_segments":[],"categories_sizes":[],"default_left":[0,0,1,0,0,0,0,0,0,0,0,0,0,0,0],"id":21,"left_children":[1,3,5,7,9,11,13,-1,-1,-1,-1,-1,-1,-1,-1],"loss_changes":[1.1668134E12,6.908228E10,2.823941E11,1.1735138E10,4.7305458E10,1.6366174E11,8.316676E10,0E0,0E0,0E0,0E0,0E0,0E0,0E0,0E0],"parents":[2147483647,0,0,1,1,2,2,3,3,4,4,5,5,6,6],"right_children":[2,4,6,8,10,12,14,-1,-1,-1,-1,-1,-1,-1,-1],"split_conditions":[8E0,6.8E1,3.6592E4,6E0,3.8351E4,5E0,2.55E2,2.3782361E2,2.6468814E2,2.0922887E2,2.3991612E2,2.805949E2,2.4859679E2,3.2232544E2,2.64656E2],"split_indices":[1,0,6,1,6,2,0,0,0,0,0,0,0,0,0],"split_type":[0,0,0,0,0,0,0,0,0,0,0,0,0,0,0],"sum_hessian":[1.45357E5,4.8432E4,9.6925E4,9.109E3,3.9323E4,7.721E4,1.9715E4,6.831E3,2.278E3,3.3342E4,5.981E3,5.4437E4,2.2773E4,1.6735E4,2.98E3],"tree_param":{"num_deleted":"0","num_feature":"9","num_nodes":"15","size_leaf_vector":"1"}},{"base_weights":[2.5717129E4,2.1747871E4,2.7700266E4,2.423507E4,2.1181525E4,2.6460629E4,3.0018352E4,2.3797365E2,2.7274698E2,2.0682738E2,2.3557492E2,2.744343E2,2.420805E2,2.7625348E2,3.1531912E2],"categories":[],"categories_nodes":[],"categories_segments":[],"categories_sizes":[],"default_left":[0,0,1,0,0,0,0,0,0,0,0,0,0,0,0],"id":22,"left_children":[1,3,5,7,9,11,13,-1,-1,-1,-1,-1,-1,-1,-1],"loss_changes":[1.1436022E12,6.7710747E10,2.7772165E11,1.1293164E10,4.627366E10,1.39167E11,1.214251E11,0E0,0E0,0E0,0E0,0E0,0E0,0E0,0E0],"parents":[2147483647,0,0,1,1,2,2,3,3,4,4,5,5,6,6],"right_children":[2,4,6,8,10,12,14,-1,-1,-1,-1,-1,-1,-1,-1],"split_conditions":[8E0,6.7E1,3.3483E4,7E0,3.7594E4,5E0,1.58E2,2.3797365E2,2.7274698E2,2.0682738E2,2.3557492E2,2.744343E2,2.420805E2,2.7625348E2,3.1531912E2],"split_indices":[1,0,6,1,6,2,0,0,0,0,0,0,0,0,0],"split_type":[0,0,0,0,0,0,0,0,0,0,0,0,0,0,0],"sum_hessian":[1.45357E5,4.8432E4,9.6925E4,8.975E3,3.9457E4,6.3161E4,3.3764E4,7.853E3,1.122E3,3.2619E4,6.838E3,4.3967E4,1.9194E4,1.3089E4,2.0675E4],"tree_param":{"num_deleted":"0","num_feature":"9","num_nodes":"15","size_leaf_vector":"1"}},{"base_weights":[2.5459973E4,2.1871746E4,2.7611387E4,2.118344E4,2.427751E4,2.6743268E4,3.075091E4,2.0126822E2,2.2793356E2,2.577106E2,2.0535536E2,2.762139E2,2.4651036E2,3.1617657E2,2.5885822E2],"categories":[],"categories_nodes":[],"categories_segments":[],"categories_sizes":[],"default_left":[0,0,1,1,0,0,0,0,0,0,0,0,0,0,0],"id":23,"left_children":[1,3,5,7,9,11,13,-1,-1,-1,-1,-1,-1,-1,-1],"loss_changes":[1.1215233E12,8.971197E10,2.4684318E11,7.162613E10,6.7179643E10,1.3011989E11,8.215593E10,0E0,0E0,0E0,0E0,0E0,0E0,0E0,0E0],"parents":[2147483647,0,0,1,1,2,2,3,3,4,4,5,5,6,6],"right_children":[2,4,6,8,10,12,14,-1,-1,-1,-1,-1,-1,-1,-1],"split_conditions":[9E0,7E0,3.6592E4,3.3974E4,5E0,5E0,2.55E2,2.0126822E2,2.2793356E2,2.577106E2,2.0535536E2,2.762139E2,2.4651036E2,3.1617657E2,2.5885822E2],"split_indices":[1,1,6,6,2,2,0,0,0,0,0,0,0,0,0],"split_type":[0,0,0,0,0,0,0,0,0,0,0,0,0,0,0],"sum_hessian":[1.45357E5,5.4489E4,9.0868E4,4.2375E4,1.2114E4,7.1192E4,1.9676E4,2.5592E4,1.6783E4,8.654E3,3.46E3,5.0137E4,2.1055E4,1.6696E4,2.98E3],"tree_param":{"num_deleted":"0","num_feature":"9","num_nodes":"15","size_leaf_vector":"1"}},{"base_weights":[2.5205387E4,2.1653045E4,2.7335287E4,2.0971615E4,2.4034773E4,2.6475844E4,3.044343E4,1.9945076E2,2.2596175E2,2.551338E2,2.033024E2,2.7345184E2,2.4404536E2,3.1301498E2,2.5627048E2],"categories":[],"categories_nodes":[],"categories_segments":[],"categories_sizes":[],"default_left":[0,0,1,1,0,0,0,0,0,0,0,0,0,0,0],"id":24,"left_children":[1,3,5,7,9,11,13,-1,-1,-1,-1,-1,-1,-1,-1],"loss_changes":[1.09920964E12,8.793149E10,2.4193165E11,7.022104E10,6.584166E10,1.2752362E11,8.052015E10,0E0,0E0,0E0,0E0,0E0,0E0,0E0,0E0],"parents":[2147483647,0,0,1,1,2,2,3,3,4,4,5,5,6,6],"right_children":[2,4,6,8,10,12,14,-1,-1,-1,-1,-1,-1,-1,-1],"split_conditions":[9E0,7E0,3.6592E4,3.4113E4,5E0,5E0,2.55E2,1.9945076E2,2.2596175E2,2.551338E2,2.033024E2,2.7345184E2,2.4404536E2,3.1301498E2,2.5627048E2],"split_indices":[1,1,6,6,2,2,0,0,0,0,0,0,0,0,0],"split_type":[0,0,0,0,0,0,0,0,0,0,0,0,0,0,0],"sum_hessian":[1.45357E5,5.4489E4,9.0868E4,4.2375E4,1.2114E4,7.1192E4,1.9676E4,2.5975E4,1.64E4,8.654E3,3.46E3,5.0137E4,2.1055E4,1.6696E4,2.98E3],"tree_param":{"num_deleted":"0","num_feature":"9","num_nodes":"15","size_leaf_vector":"1"}},{"base_weights":[2.4953346E4,2.1436531E4,2.7061945E4,2.076191E4,2.3794463E4,2.6211092E4,3.0139025E4,1.9726118E2,2.2340094E2,2.5258275E2,2.0126996E2,2.7071735E2,2.4160503E2,2.7210895E2,3.1550073E2],"categories":[],"categories_nodes":[],"categories_segments":[],"categories_sizes":[],"default_left":[0,0,1,1,0,0,0,0,0,0,0,0,0,0,0],"id":25,"left_children":[1,3,5,7,9,11,13,-1,-1,-1,-1,-1,-1,-1,-1],"loss_changes":[1.07733215E12,8.618246E10,2.3711659E11,6.8830626E10,6.453094E10,1.2499026E11,8.044046E10,0E0,0E0,0E0,0E0,0E0,0E0,0E0,0E0],"parents":[2147483647,0,0,1,1,2,2,3,3,4,4,5,5,6,6],"right_children":[2,4,6,8,10,12,14,-1,-1,-1,-1,-1,-1,-1,-1],"split_conditions":[9E0,7E0,3.6592E4,3.3974E4,5E0,5E0,1.69E2,1.9726118E2,2.2340094E2,2.5258275E2,2.0126996E2,2.7071735E2,2.4160503E2,2.7210895E2,3.1550073E2],"split_indices":[1,1,6,6,2,2,0,0,0,0,0,0,0,0,0],"split_type":[0,0,0,0,0,0,0,0,0,0,0,0,0,0,0],"sum_hessian":[1.45357E5,5.4489E4,9.0868E4,4.2375E4,1.2114E4,7.1192E4,1.9676E4,2.5592E4,1.6783E4,8.654E3,3.46E3,5.0137E4,2.1055E4,6.405E3,1.3271E4],"tree_param":{"num_deleted":"0","num_feature":"9","num_nodes":"15","size_leaf_vector":"1"}},{"base_weights":[2.4703826E4,2.0889781E4,2.6609412E4,2.3318781E4,2.0326535E4,2.5377412E4,2.8797473E4,2.2659021E2,2.5286382E2,1.8739851E2,2.1064972E2,2.6331955E2,2.3195306E2,2.6486917E2,3.028093E2],"categories":[],"categories_nodes":[],"categories_segments":[],"categories_sizes":[],"default_left":[0,0,1,0,0,0,0,0,0,0,0,0,0,0,0],"id":26,"left_children":[1,3,5,7,9,11,13,-1,-1,-1,-1,-1,-1,-1,-1],"loss_changes":[1.05590764E12,6.578766E10,2.6055436E11,1.1253318E10,4.5680165E10,1.28568E11,1.188456E11,0E0,0E0,0E0,0E0,0E0,0E0,0E0,0E0],"parents":[2147483647,0,0,1,1,2,2,3,3,4,4,5,5,6,6],"right_children":[2,4,6,8,10,12,14,-1,-1,-1,-1,-1,-1,-1,-1],"split_conditions":[8E0,6.8E1,3.3292E4,6E0,1.6E2,5E0,1.58E2,2.2659021E2,2.5286382E2,1.8739851E2,2.1064972E2,2.6331955E2,2.3195306E2,2.6486917E2,3.028093E2],"split_indices":[1,0,6,1,0,2,0,0,0,0,0,0,0,0,0],"split_type":[0,0,0,0,0,0,0,0,0,0,0,0,0,0,0],"sum_hessian":[1.45357E5,4.8432E4,9.6925E4,9.109E3,3.9323E4,6.2018E4,3.4907E4,6.831E3,2.278E3,1.2497E4,2.6826E4,4.3137E4,1.8881E4,1.3656E4,2.1251E4],"tree_param":{"num_deleted":"0","num_feature":"9","num_nodes":"15","size_leaf_vector":"1"}},{"base_weights":[2.44568E4,2.1008125E4,2.6524547E4,2.361985E4,2.0413566E4,2.568906E4,2.9546059E4,2.2686987E2,2.6872894E2,1.9812773E2,2.2512718E2,2.65333E2,2.3677557E2,3.040006E2,2.4752762E2],"categories":[],"categories_nodes":[],"categories_segments":[],"categories_sizes":[],"default_left":[0,0,1,0,0,0,0,0,0,0,0,0,0,0,0],"id":27,"left_children":[1,3,5,7,9,11,13,-1,-1,-1,-1,-1,-1,-1,-1],"loss_changes":[1.0359931E12,8.413145E10,2.2862732E11,3.0034362E10,5.5538876E10,1.2027167E11,7.979663E10,0E0,0E0,0E0,0E0,0E0,0E0,0E0,0E0],"parents":[2147483647,0,0,1,1,2,2,3,3,4,4,5,5,6,6],"right_children":[2,4,6,8,10,12,14,-1,-1,-1,-1,-1,-1,-1,-1],"split_conditions":[9E0,6.7E1,3.6592E4,7E0,7E0,5E0,2.55E2,2.2686987E2,2.6872894E2,1.9812773E2,2.2512718E2,2.65333E2,2.3677557E2,3.040006E2,2.4752762E2],"split_indices":[1,0,6,1,1,2,0,0,0,0,0,0,0,0,0],"split_type":[0,0,0,0,0,0,0,0,0,0,0,0,0,0,0],"sum_hessian":[1.45357E5,5.4489E4,9.0868E4,1.0097E4,4.4392E4,7.1192E4,1.9676E4,7.853E3,2.244E3,3.4522E4,9.87E3,5.0137E4,2.1055E4,1.6696E4,2.98E3],"tree_param":{"num_deleted":"0","num_feature":"9","num_nodes":"15","size_leaf_vector":"1"}},{"base_weights":[2.4212246E4,2.079806E4,2.6259312E4,2.3360299E4,2.0204027E4,2.5432176E4,2.9250623E4,2.2437125E2,2.6578928E2,1.9610309E2,2.227857E2,2.6267972E2,2.3440794E2,3.0096075E2,2.4505318E2],"categories":[],"categories_nodes":[],"categories_segments":[],"categories_sizes":[],"default_left":[0,0,1,0,0,0,0,0,0,0,0,0,0,0,0],"id":28,"left_children":[1,3,5,7,9,11,13,-1,-1,-1,-1,-1,-1,-1,-1],"loss_changes":[1.0153655E12,8.246421E10,2.2408908E11,2.9857153E10,5.405619E10,1.17872525E11,7.820385E10,0E0,0E0,0E0,0E0,0E0,0E0,0E0,0E0],"parents":[2147483647,0,0,1,1,2,2,3,3,4,4,5,5,6,6],"right_children":[2,4,6,8,10,12,14,-1,-1,-1,-1,-1,-1,-1,-1],"split_conditions":[9E0,6.8E1,3.6592E4,7E0,7E0,5E0,2.55E2,2.2437125E2,2.6578928E2,1.9610309E2,2.227857E2,2.6267972E2,2.3440794E2,3.0096075E2,2.4505318E2],"split_indices":[1,0,6,1,1,2,0,0,0,0,0,0,0,0,0],"split_type":[0,0,0,0,0,0,0,0,0,0,0,0,0,0,0],"sum_hessian":[1.45357E5,5.4489E4,9.0868E4,1.0248E4,4.4241E4,7.1192E4,1.9676E4,7.97E3,2.278E3,3.4405E4,9.836E3,5.0137E4,2.1055E4,1.6696E4,2.98E3],"tree_param":{"num_deleted":"0","num_feature":"9","num_nodes":"15","size_leaf_vector":"1"}},{"base_weights":[2.3970137E4,2.0590096E4,2.599673E4,2.3150148E4,2.00073E4,2.5120232E4,2.8765066E4,2.2235805E2,2.6338614E2,1.9418459E2,2.2064703E2,2.5948355E2,2.3160237E2,2.962621E2,2.4176022E2],"categories":[],"categories_nodes":[],"categories_segments":[],"categories_sizes":[],"default_left":[0,0,1,0,0,0,0,0,0,0,0,0,0,0,0],"id":29,"left_children":[1,3,5,7,9,11,13,-1,-1,-1,-1,-1,-1,-1,-1],"loss_changes":[9.9516573E11,8.083472E10,2.1976475E11,2.8853142E10,5.3351547E10,1.1143427E11,8.560994E10,0E0,0E0,0E0,0E0,0E0,0E0,0E0,0E0],"parents":[2147483647,0,0,1,1,2,2,3,3,4,4,5,5,6,6],"right_children":[2,4,6,8,10,12,14,-1,-1,-1,-1,-1,-1,-1,-1],"split_conditions":[9E0,6.7E1,3.6004E4,7E0,7E0,5E0,2.55E2,2.2235805E2,2.6338614E2,1.9418459E2,2.2064703E2,2.5948355E2,2.3160237E2,2.962621E2,2.4176022E2],"split_indices":[1,0,6,1,1,2,0,0,0,0,0,0,0,0,0],"split_type":[0,0,0,0,0,0,0,0,0,0,0,0,0,0,0],"sum_hessian":[1.45357E5,5.4489E4,9.0868E4,1.0097E4,4.4392E4,6.9024E4,2.1844E4,7.853E3,2.244E3,3.4522E4,9.87E3,4.8514E4,2.051E4,1.8388E4,3.456E3],"tree_param":{"num_deleted":"0","num_feature":"9","num_nodes":"15","size_leaf_vector":"1"}},{"base_weights":[2.373045E4,2.038421E4,2.5736775E4,2.2895752E4,1.9801934E4,2.492566E4,2.8670152E4,2.1990865E2,2.6050623E2,1.9220033E2,2.183518E2,2.574502E2,2.2973438E2,2.5769348E2,3.0068124E2],"categories":[],"categories_nodes":[],"categories_segments":[],"categories_sizes":[],"default_left":[0,0,1,0,0,0,0,0,0,0,0,0,0,0,0],"id":30,"left_children":[1,3,5,7,9,11,13,-1,-1,-1,-1,-1,-1,-1,-1],"loss_changes":[9.753602E11,7.92325E10,2.1549076E11,2.8685894E10,5.1925484E10,1.1328396E11,7.902069E10,0E0,0E0,0E0,0E0,0E0,0E0,0E0,0E0],"parents":[2147483647,0,0,1,1,2,2,3,3,4,4,5,5,6,6],"right_children":[2,4,6,8,10,12,14,-1,-1,-1,-1,-1,-1,-1,-1],"split_conditions":[9E0,6.8E1,3.6592E4,7E0,7E0,5E0,1.69E2,2.1990865E2,2.6050623E2,1.9220033E2,2.183518E2,2.574502E2,2.2973438E2,2.5769348E2,3.0068124E2],"split_indices":[1,0,6,1,1,2,0,0,0,0,0,0,0,0,0],"split_type":[0,0,0,0,0,0,0,0,0,0,0,0,0,0,0],"sum_hessian":[1.45357E5,5.4489E4,9.0868E4,1.0248E4,4.4241E4,7.1192E4,1.9676E4,7.97E3,2.278E3,3.4405E4,9.836E3,5.0137E4,2.1055E4,6.405E3,1.3271E4],"tree_param":{"num_deleted":"0","num_feature":"9","num_nodes":"15","size_leaf_vector":"1"}},{"base_weights":[2.3493158E4,2.0180385E4,2.547942E4,2.2689787E4,1.9609121E4,2.4534107E4,2.7952562E4,2.1793593E2,2.5814957E2,1.903199E2,2.1625603E2,2.5347922E2,2.2629968E2,2.8837488E2,2.365976E2],"categories":[],"categories_nodes":[],"categories_segments":[],"categories_sizes":[],"default_left":[0,0,1,0,0,0,0,0,0,0,0,0,0,0,0],"id":31,"left_children":[1,3,5,7,9,11,13,-1,-1,-1,-1,-1,-1,-1,-1],"loss_changes":[9.559406E11,7.7668024E10,2.1176202E11,2.7720155E10,5.1253346E10,1.0131341E11,9.474723E10,0E0,0E0,0E0,0E0,0E0,0E0,0E0,0E0],"parents":[2147483647,0,0,1,1,2,2,3,3,4,4,5,5,6,6],"right_children":[2,4,6,8,10,12,14,-1,-1,-1,-1,-1,-1,-1,-1],"split_conditions":[9E0,6.7E1,3.5197E4,7E0,7E0,5E0,2.55E2,2.1793593E2,2.5814957E2,1.903199E2,2.1625603E2,2.5347922E2,2.2629968E2,2.8837488E2,2.365976E2],"split_indices":[1,0,6,1,1,2,0,0,0,0,0,0,0,0,0],"split_type":[0,0,0,0,0,0,0,0,0,0,0,0,0,0,0],"sum_hessian":[1.45357E5,5.4489E4,9.0868E4,1.0097E4,4.4392E4,6.5748E4,2.512E4,7.853E3,2.244E3,3.4522E4,9.87E3,4.6053E4,1.9695E4,2.0822E4,4.298E3],"tree_param":{"num_deleted":"0","num_feature":"9","num_nodes":"15","size_leaf_vector":"1"}},{"base_weights":[2.325824E4,1.9978598E4,2.5224637E4,2.2440441E4,1.9407842E4,2.406547E4,2.7204125E4,2.155348E2,2.553282E2,1.8837523E2,2.1400616E2,2.490782E2,2.2152791E2,2.4869304E2,2.8674786E2],"categories":[],"categories_nodes":[],"categories_segments":[],"categories_sizes":[],"default_left":[0,0,1,0,0,0,0,0,0,0,0,0,0,0,0],"id":32,"left_children":[1,3,5,7,9,11,13,-1,-1,-1,-1,-1,-1,-1,-1],"loss_changes":[9.3691524E11,7.6128715E10,2.0784873E11,2.7561296E10,4.9878663E10,9.179654E10,1.1449611E11,0E0,0E0,0E0,0E0,0E0,0E0,0E0,0E0],"parents":[2147483647,0,0,1,1,2,2,3,3,4,4,5,5,6,6],"right_children":[2,4,6,8,10,12,14,-1,-1,-1,-1,-1,-1,-1,-1],"split_conditions":[9E0,6.8E1,3.3483E4,7E0,7E0,5E0,1.58E2,2.155348E2,2.553282E2,1.8837523E2,2.1400616E2,2.490782E2,2.2152791E2,2.4869304E2,2.8674786E2],"split_indices":[1,0,6,1,1,2,0,0,0,0,0,0,0,0,0],"split_type":[0,0,0,0,0,0,0,0,0,0,0,0,0,0,0],"sum_hessian":[1.45357E5,5.4489E4,9.0868E4,1.0248E4,4.4241E4,5.7317E4,3.3551E4,7.97E3,2.278E3,3.4405E4,9.836E3,3.9784E4,1.7533E4,1.2973E4,2.0578E4],"tree_param":{"num_deleted":"0","num_feature":"9","num_nodes":"15","size_leaf_vector":"1"}},{"base_weights":[2.302567E4,1.9468541E4,2.4802896E4,2.172952E4,1.8944256E4,2.361971E4,2.6835738E4,2.110692E2,2.358642E2,1.8527808E2,2.1705943E2,2.4519434E2,2.1567285E2,2.4610927E2,2.8280264E2],"categories":[],"categories_nodes":[],"categories_segments":[],"categories_sizes":[],"default_left":[0,0,1,0,0,0,0,0,0,0,0,0,0,0,0],"id":33,"left_children":[1,3,5,7,9,11,13,-1,-1,-1,-1,-1,-1,-1,-1],"loss_changes":[9.184435E11,5.700059E10,2.3249866E11,1.0034086E10,4.482348E10,1.1262126E11,1.1388374E11,0E0,0E0,0E0,0E0,0E0,0E0,0E0,0E0],"parents":[2147483647,0,0,1,1,2,2,3,3,4,4,5,5,6,6],"right_children":[2,4,6,8,10,12,14,-1,-1,-1,-1,-1,-1,-1,-1],"split_conditions":[8E0,6.8E1,3.316E4,6E0,3.9206E4,5E0,1.58E2,2.110692E2,2.358642E2,1.8527808E2,2.1705943E2,2.4519434E2,2.1567285E2,2.4610927E2,2.8280264E2],"split_indices":[1,0,6,1,6,2,0,0,0,0,0,0,0,0,0],"split_type":[0,0,0,0,0,0,0,0,0,0,0,0,0,0,0],"sum_hessian":[1.45357E5,4.8432E4,9.6925E4,9.109E3,3.9323E4,6.1274E4,3.5651E4,6.831E3,2.278E3,3.4177E4,5.146E3,4.2592E4,1.8682E4,1.4042E4,2.1609E4],"tree_param":{"num_deleted":"0","num_feature":"9","num_nodes":"15","size_leaf_vector":"1"}},{"base_weights":[2.2795426E4,1.9579357E4,2.4723705E4,2.2019041E4,1.9023967E4,2.3940686E4,2.755548E4,2.1145593E2,2.5064935E2,1.8463113E2,2.0983577E2,2.4730002E2,2.2060046E2,2.4721603E2,2.892123E2],"categories":[],"categories_nodes":[],"categories_segments":[],"categories_sizes":[],"default_left":[0,0,1,0,0,0,0,0,0,0,0,0,0,0,0],"id":34,"left_children":[1,3,5,7,9,11,13,-1,-1,-1,-1,-1,-1,-1,-1],"loss_changes":[9.009449E11,7.3415E10,2.0082747E11,2.6334986E10,4.8403317E10,1.0513442E11,7.544295E10,0E0,0E0,0E0,0E0,0E0,0E0,0E0,0E0],"parents":[2147483647,0,0,1,1,2,2,3,3,4,4,5,5,6,6],"right_children":[2,4,6,8,10,12,14,-1,-1,-1,-1,-1,-1,-1,-1],"split_conditions":[9E0,6.7E1,3.6592E4,7E0,7E0,5E0,1.69E2,2.1145593E2,2.5064935E2,1.8463113E2,2.0983577E2,2.4730002E2,2.2060046E2,2.4721603E2,2.892123E2],"split_indices":[1,0,6,1,1,2,0,0,0,0,0,0,0,0,0],"split_type":[0,0,0,0,0,0,0,0,0,0,0,0,0,0,0],"sum_hessian":[1.45357E5,5.4489E4,9.0868E4,1.0097E4,4.4392E4,7.1192E4,1.9676E4,7.853E3,2.244E3,3.4522E4,9.87E3,5.0137E4,2.1055E4,6.405E3,1.3271E4],"tree_param":{"num_deleted":"0","num_feature":"9","num_nodes":"15","size_leaf_vector":"1"}},{"base_weights":[2.2567484E4,1.938358E4,2.4476479E4,2.1798895E4,1.8833736E4,2.3802338E4,2.7702396E4,2.0934163E2,2.4814397E2,1.8278488E2,2.0773763E2,2.4592072E2,2.1907495E2,2.8517685E2,2.2638046E2],"categories":[],"categories_nodes":[],"categories_segments":[],"categories_sizes":[],"default_left":[0,0,1,0,0,0,0,0,0,0,0,0,0,0,0],"id":35,"left_children":[1,3,5,7,9,11,13,-1,-1,-1,-1,-1,-1,-1,-1],"loss_changes":[8.8301004E11,7.1953285E10,1.9695613E11,2.5812271E10,4.7440724E10,1.1195017E11,6.418229E10,0E0,0E0,0E0,0E0,0E0,0E0,0E0,0E0],"parents":[2147483647,0,0,1,1,2,2,3,3,4,4,5,5,6,6],"right_children":[2,4,6,8,10,12,14,-1,-1,-1,-1,-1,-1,-1,-1],"split_conditions":[9E0,6.7E1,3.7843E4,7E0,7E0,5E0,2.55E2,2.0934163E2,2.4814397E2,1.8278488E2,2.0773763E2,2.4592072E2,2.1907495E2,2.8517685E2,2.2638046E2],"split_indices":[1,0,6,1,1,2,0,0,0,0,0,0,0,0,0],"split_type":[0,0,0,0,0,0,0,0,0,0,0,0,0,0,0],"sum_hessian":[1.45357E5,5.4489E4,9.0868E4,1.0097E4,4.4392E4,7.5168E4,1.57E4,7.853E3,2.244E3,3.4522E4,9.87E3,5.3047E4,2.2121E4,1.3519E4,2.181E3],"tree_param":{"num_deleted":"0","num_feature":"9","num_nodes":"15","size_leaf_vector":"1"}},{"base_weights":[2.2341822E4,1.918976E4,2.4231725E4,2.155933E4,1.8640396E4,2.306101E4,2.6064643E4,2.0703427E2,2.4543462E2,1.7106284E2,1.9354558E2,2.387983E2,2.1212161E2,2.6969598E2,2.2558119E2],"categories":[],"categories_nodes":[],"categories_segments":[],"categories_sizes":[],"default_left":[0,0,1,0,0,0,0,0,0,0,0,0,0,0,0],"id":36,"left_children":[1,3,5,7,9,11,13,-1,-1,-1,-1,-1,-1,-1,-1],"loss_changes":[8.654443E11,7.053142E10,1.9438502E11,2.566914E10,4.814327E10,8.345197E10,1.1175723E11,0E0,0E0,0E0,0E0,0E0,0E0,0E0,0E0],"parents":[2147483647,0,0,1,1,2,2,3,3,4,4,5,5,6,6],"right_children":[2,4,6,8,10,12,14,-1,-1,-1,-1,-1,-1,-1,-1],"split_conditions":[9E0,6.8E1,3.316E4,7E0,1.6E2,5E0,2.55E2,2.0703427E2,2.4543462E2,1.7106284E2,1.9354558E2,2.387983E2,2.1212161E2,2.6969598E2,2.2558119E2],"split_indices":[1,0,6,1,0,2,0,0,0,0,0,0,0,0,0],"split_type":[0,0,0,0,0,0,0,0,0,0,0,0,0,0,0],"sum_hessian":[1.45357E5,5.4489E4,9.0868E4,1.0248E4,4.4241E4,5.5459E4,3.5409E4,7.97E3,2.278E3,1.4061E4,3.018E4,3.8428E4,1.7031E4,2.814E4,7.269E3],"tree_param":{"num_deleted":"0","num_feature":"9","num_nodes":"15","size_leaf_vector":"1"}},{"base_weights":[2.2118416E4,1.8698475E4,2.3827102E4,2.0870795E4,1.8194748E4,2.2653818E4,2.5742707E4,2.0268921E2,2.2665933E2,1.7782439E2,2.0929109E2,2.3529555E2,2.066045E2,2.357997E2,2.7171008E2],"categories":[],"categories_nodes":[],"categories_segments":[],"categories_sizes":[],"default_left":[0,0,1,0,0,0,0,0,0,0,0,0,0,0,0],"id":37,"left_children":[1,3,5,7,9,11,13,-1,-1,-1,-1,-1,-1,-1,-1],"loss_changes":[8.4897746E11,5.2617544E10,2.1726075E11,9.383444E9,4.396155E10,1.0446124E11,1.13063756E11,0E0,0E0,0E0,0E0,0E0,0E0,0E0,0E0],"parents":[2147483647,0,0,1,1,2,2,3,3,4,4,5,5,6,6],"right_children":[2,4,6,8,10,12,14,-1,-1,-1,-1,-1,-1,-1,-1],"split_conditions":[8E0,6.8E1,3.2968E4,6E0,3.9206E4,5E0,1.58E2,2.0268921E2,2.2665933E2,1.7782439E2,2.0929109E2,2.3529555E2,2.066045E2,2.357997E2,2.7171008E2],"split_indices":[1,0,6,1,6,2,0,0,0,0,0,0,0,0,0],"split_type":[0,0,0,0,0,0,0,0,0,0,0,0,0,0,0],"sum_hessian":[1.45357E5,4.8432E4,9.6925E4,9.109E3,3.9323E4,6.0117E4,3.6808E4,6.831E3,2.278E3,3.4177E4,5.146E3,4.176E4,1.8357E4,1.4647E4,2.2161E4],"tree_param":{"num_deleted":"0","num_feature":"9","num_nodes":"15","size_leaf_vector":"1"}},{"base_weights":[2.1897244E4,1.880632E4,2.375049E4,1.820619E4,2.0903914E4,2.3110613E4,2.6990055E4,1.7226053E2,1.9757423E2,2.2340933E2,1.7304283E2,2.387935E2,2.1264922E2,2.7789157E2,2.1952612E2],"categories":[],"categories_nodes":[],"categories_segments":[],"categories_sizes":[],"default_left":[0,0,1,1,0,0,0,0,0,0,0,0,0,0,0],"id":38,"left_children":[1,3,5,7,9,11,13,-1,-1,-1,-1,-1,-1,-1,-1],"loss_changes":[8.3220025E11,6.8214063E10,1.8773705E11,6.4088965E10,6.228122E10,1.0716866E11,5.9698577E10,0E0,0E0,0E0,0E0,0E0,0E0,0E0,0E0],"parents":[2147483647,0,0,1,1,2,2,3,3,4,4,5,5,6,6],"right_children":[2,4,6,8,10,12,14,-1,-1,-1,-1,-1,-1,-1,-1],"split_conditions":[9E0,7E0,3.809E4,3.4113E4,5E0,5E0,2.55E2,1.7226053E2,1.9757423E2,2.2340933E2,1.7304283E2,2.387935E2,2.1264922E2,2.7789157E2,2.1952612E2],"split_indices":[1,1,6,6,2,2,0,0,0,0,0,0,0,0,0],"split_type":[0,0,0,0,0,0,0,0,0,0,0,0,0,0,0],"sum_hessian":[1.45357E5,5.4489E4,9.0868E4,4.2375E4,1.2114E4,7.5887E4,1.4981E4,2.5975E4,1.64E4,8.654E3,3.46E3,5.3565E4,2.2322E4,1.2926E4,2.055E3],"tree_param":{"num_deleted":"0","num_feature":"9","num_nodes":"15","size_leaf_vector":"1"}},{"base_weights":[2.1678283E4,1.8326082E4,2.3353123E4,2.0492975E4,1.7832686E4,2.2198629E4,2.523806E4,1.9900128E2,2.2261595E2,1.7250545E2,1.97033E2,2.3057005E2,2.0244771E2,2.3101286E2,2.6649225E2],"categories":[],"categories_nodes":[],"categories_segments":[],"categories_sizes":[],"default_left":[0,0,1,0,0,0,0,0,0,0,0,0,0,0,0],"id":39,"left_children":[1,3,5,7,9,11,13,-1,-1,-1,-1,-1,-1,-1,-1],"loss_changes":[8.156705E11,5.1415876E10,2.1036532E11,8.968471E9,4.262776E10,1.0035921E11,1.1037521E11,0E0,0E0,0E0,0E0,0E0,0E0,0E0,0E0],"parents":[2147483647,0,0,1,1,2,2,3,3,4,4,5,5,6,6],"right_children":[2,4,6,8,10,12,14,-1,-1,-1,-1,-1,-1,-1,-1],"split_conditions":[8E0,6.7E1,3.2968E4,6E0,3.5719E4,5E0,1.58E2,1.9900128E2,2.2261595E2,1.7250545E2,1.97033E2,2.3057005E2,2.0244771E2,2.3101286E2,2.6649225E2],"split_indices":[1,0,6,1,6,2,0,0,0,0,0,0,0,0,0],"split_type":[0,0,0,0,0,0,0,0,0,0,0,0,0,0,0],"sum_hessian":[1.45357E5,4.8432E4,9.6925E4,8.975E3,3.9457E4,6.0117E4,3.6808E4,6.731E3,2.244E3,3.01E4,9.357E3,4.176E4,1.8357E4,1.4647E4,2.2161E4],"tree_param":{"num_deleted":"0","num_feature":"9","num_nodes":"15","size_leaf_vector":"1"}},{"base_weights":[2.1461512E4,1.8430533E4,2.3278816E4,2.0756363E4,1.7901064E4,2.2438209E4,2.5662854E4,1.9923245E2,2.3661732E2,1.6419269E2,1.8598285E2,2.3182536E2,2.0688576E2,2.6520667E2,2.1333122E2],"categories":[],"categories_nodes":[],"categories_segments":[],"categories_sizes":[],"default_left":[0,0,1,0,0,0,0,0,0,0,0,0,0,0,0],"id":40,"left_children":[1,3,5,7,9,11,13,-1,-1,-1,-1,-1,-1,-1,-1],"loss_changes":[8.0022707E11,6.6731377E10,1.8153367E11,2.3970972E10,4.555748E10,8.702132E10,8.738623E10,0E0,0E0,0E0,0E0,0E0,0E0,0E0,0E0],"parents":[2147483647,0,0,1,1,2,2,3,3,4,4,5,5,6,6],"right_children":[2,4,6,8,10,12,14,-1,-1,-1,-1,-1,-1,-1,-1],"split_conditions":[9E0,6.7E1,3.5538E4,7E0,1.6E2,5E0,2.55E2,1.9923245E2,2.3661732E2,1.6419269E2,1.8598285E2,2.3182536E2,2.0688576E2,2.6520667E2,2.1333122E2],"split_indices":[1,0,6,1,0,2,0,0,0,0,0,0,0,0,0],"split_type":[0,0,0,0,0,0,0,0,0,0,0,0,0,0,0],"sum_hessian":[1.45357E5,5.4489E4,9.0868E4,1.0097E4,4.4392E4,6.7188E4,2.368E4,7.853E3,2.244E3,1.4212E4,3.018E4,4.7127E4,2.0061E4,1.976E4,3.92E3],"tree_param":{"num_deleted":"0","num_feature":"9","num_nodes":"15","size_leaf_vector":"1"}},{"base_weights":[2.124691E4,1.7959219E4,2.2889518E4,2.0065344E4,1.7470848E4,2.1755904E4,2.4740361E4,1.9480853E2,2.1808722E2,1.5945644E2,1.8180748E2,2.2598886E2,1.9837093E2,2.5619144E2,2.1369637E2],"categories":[],"categories_nodes":[],"categories_segments":[],"categories_sizes":[],"default_left":[0,0,1,0,0,0,0,0,0,0,0,0,0,0,0],"id":41,"left_children":[1,3,5,7,9,11,13,-1,-1,-1,-1,-1,-1,-1,-1],"loss_changes":[7.845781E11,4.9465524E10,2.0282815E11,8.858108E9,4.228802E10,9.679615E10,1.0848567E11,0E0,0E0,0E0,0E0,0E0,0E0,0E0,0E0],"parents":[2147483647,0,0,1,1,2,2,3,3,4,4,5,5,6,6],"right_children":[2,4,6,8,10,12,14,-1,-1,-1,-1,-1,-1,-1,-1],"split_conditions":[8E0,6.8E1,3.2968E4,6E0,1.6E2,5E0,2.55E2,1.9480853E2,2.1808722E2,1.5945644E2,1.8180748E2,2.2598886E2,1.9837093E2,2.5619144E2,2.1369637E2],"split_indices":[1,0,6,1,0,2,0,0,0,0,0,0,0,0,0],"split_type":[0,0,0,0,0,0,0,0,0,0,0,0,0,0,0],"sum_hessian":[1.45357E5,4.8432E4,9.6925E4,9.109E3,3.9323E4,6.0117E4,3.6808E4,6.831E3,2.278E3,1.2497E4,2.6826E4,4.176E4,1.8357E4,2.9191E4,7.617E3],"tree_param":{"num_deleted":"0","num_feature":"9","num_nodes":"15","size_leaf_vector":"1"}},{"base_weights":[2.1034451E4,1.8062203E4,2.2816541E4,1.747886E4,2.010114E4,2.3695633E4,2.0591168E4,1.6580649E2,1.9098918E2,2.1516267E2,1.6556496E2,2.1331403E2,2.759364E2,1.9638417E2,2.2905072E2],"categories":[],"categories_nodes":[],"categories_segments":[],"categories_sizes":[],"default_left":[0,0,0,1,0,0,0,0,0,0,0,0,0,0,0],"id":42,"left_children":[1,3,5,7,9,11,13,-1,-1,-1,-1,-1,-1,-1,-1],"loss_changes":[7.6952057E11,6.446016E10,1.7727645E11,6.134694E10,6.041423E10,5.9964706E11,5.629385E10,0E0,0E0,0E0,0E0,0E0,0E0,0E0,0E0],"parents":[2147483647,0,0,1,1,2,2,3,3,4,4,5,5,6,6],"right_children":[2,4,6,8,10,12,14,-1,-1,-1,-1,-1,-1,-1,-1],"split_conditions":[9E0,7E0,2.59E2,3.4638E4,5E0,1.6E2,3.35E2,1.6580649E2,1.9098918E2,2.1516267E2,1.6556496E2,2.1331403E2,2.759364E2,1.9638417E2,2.2905072E2],"split_indices":[1,1,0,6,2,0,0,0,0,0,0,0,0,0,0],"split_type":[0,0,0,0,0,0,0,0,0,0,0,0,0,0,0],"sum_hessian":[1.45357E5,5.4489E4,9.0868E4,4.2375E4,1.2114E4,6.513E4,2.5738E4,2.7268E4,1.5107E4,8.654E3,3.46E3,4.0545E4,2.4585E4,1.8238E4,7.5E3],"tree_param":{"num_deleted":"0","num_feature":"9","num_nodes":"15","size_leaf_vector":"1"}},{"base_weights":[2.0824117E4,1.7881596E4,2.2588387E4,2.0141688E4,1.7357623E4,2.3458684E4,2.0385271E4,1.9326869E2,2.2982745E2,1.5881868E2,1.8044635E2,2.1118094E2,2.7317715E2,1.9442044E2,2.2676053E2],"categories":[],"categories_nodes":[],"categories_segments":[],"categories_sizes":[],"default_left":[0,0,0,0,0,0,0,0,0,0,0,0,0,0,0],"id":43,"left_children":[1,3,5,7,9,11,13,-1,-1,-1,-1,-1,-1,-1,-1],"loss_changes":[7.5421136E11,6.4179143E10,1.7374904E11,2.3281795E10,4.4568674E10,5.8771427E11,5.517397E10,0E0,0E0,0E0,0E0,0E0,0E0,0E0,0E0],"parents":[2147483647,0,0,1,1,2,2,3,3,4,4,5,5,6,6],"right_children":[2,4,6,8,10,12,14,-1,-1,-1,-1,-1,-1,-1,-1],"split_conditions":[9E0,6.8E1,2.59E2,7E0,1.6E2,1.6E2,3.35E2,1.9326869E2,2.2982745E2,1.5881868E2,1.8044635E2,2.1118094E2,2.7317715E2,1.9442044E2,2.2676053E2],"split_indices":[1,0,0,1,0,0,0,0,0,0,0,0,0,0,0],"split_type":[0,0,0,0,0,0,0,0,0,0,0,0,0,0,0],"sum_hessian":[1.45357E5,5.4489E4,9.0868E4,1.0248E4,4.4241E4,6.513E4,2.5738E4,7.97E3,2.278E3,1.4061E4,3.018E4,4.0545E4,2.4585E4,1.8238E4,7.5E3],"tree_param":{"num_deleted":"0","num_feature":"9","num_nodes":"15","size_leaf_vector":"1"}},{"base_weights":[2.0615889E4,1.7423451E4,2.2210906E4,1.948559E4,1.6945281E4,2.1036127E4,2.3919682E4,1.891255E2,2.1194897E2,1.6546579E2,1.9589522E2,2.1882613E2,1.9126604E2,2.190132E2,2.5290169E2],"categories":[],"categories_nodes":[],"categories_segments":[],"categories_sizes":[],"default_left":[0,0,1,0,0,0,0,0,0,0,0,0,0,0,0],"id":44,"left_children":[1,3,5,7,9,11,13,-1,-1,-1,-1,-1,-1,-1,-1],"loss_changes":[7.3977456E11,4.742814E10,1.9407045E11,8.5225636E9,4.113249E10,9.2438266E10,1.0865764E11,0E0,0E0,0E0,0E0,0E0,0E0,0E0,0E0],"parents":[2147483647,0,0,1,1,2,2,3,3,4,4,5,5,6,6],"right_children":[2,4,6,8,10,12,14,-1,-1,-1,-1,-1,-1,-1,-1],"split_conditions":[8E0,6.8E1,3.2548E4,6E0,3.9206E4,5E0,1.58E2,1.891255E2,2.1194897E2,1.6546579E2,1.9589522E2,2.1882613E2,1.9126604E2,2.190132E2,2.5290169E2],"split_indices":[1,0,6,1,6,2,0,0,0,0,0,0,0,0,0],"split_type":[0,0,0,0,0,0,0,0,0,0,0,0,0,0,0],"sum_hessian":[1.45357E5,4.8432E4,9.6925E4,9.109E3,3.9323E4,5.7445E4,3.948E4,6.831E3,2.278E3,3.4177E4,5.146E3,3.9794E4,1.7651E4,1.5973E4,2.3507E4],"tree_param":{"num_deleted":"0","num_feature":"9","num_nodes":"15","size_leaf_vector":"1"}},{"base_weights":[2.040974E4,1.752435E4,2.2139754E4,1.6952592E4,1.9522805E4,2.30016E4,1.9958047E4,1.5956807E2,1.8365794E2,2.0920064E2,1.6023003E2,2.0693102E2,2.680772E2,1.9047002E2,2.227388E2],"categories":[],"categories_nodes":[],"categories_segments":[],"categories_sizes":[],"default_left":[0,0,0,1,0,0,0,0,0,0,0,0,0,0,0],"id":45,"left_children":[1,3,5,7,9,11,13,-1,-1,-1,-1,-1,-1,-1,-1],"loss_changes":[7.2520355E11,6.1930996E10,1.7040199E11,5.9341013E10,5.8908475E10,5.717151E11,5.3881078E10,0E0,0E0,0E0,0E0,0E0,0E0,0E0,0E0],"parents":[2147483647,0,0,1,1,2,2,3,3,4,4,5,5,6,6],"right_children":[2,4,6,8,10,12,14,-1,-1,-1,-1,-1,-1,-1,-1],"split_conditions":[9E0,7E0,2.59E2,3.3691E4,5E0,1.6E2,3.36E2,1.5956807E2,1.8365794E2,2.0920064E2,1.6023003E2,2.0693102E2,2.680772E2,1.9047002E2,2.227388E2],"split_indices":[1,1,0,6,2,0,0,0,0,0,0,0,0,0,0],"split_type":[0,0,0,0,0,0,0,0,0,0,0,0,0,0,0],"sum_hessian":[1.45357E5,5.4489E4,9.0868E4,4.2375E4,1.2114E4,6.513E4,2.5738E4,2.4866E4,1.7509E4,8.654E3,3.46E3,4.0545E4,2.4585E4,1.8478E4,7.26E3],"tree_param":{"num_deleted":"0","num_feature":"9","num_nodes":"15","size_leaf_vector":"1"}},{"base_weights":[2.0205654E4,1.734912E4,2.1918367E4,1.958578E4,1.6839959E4,2.2771592E4,1.9758484E4,1.878819E2,2.2367372E2,1.5411095E2,1.751229E2,2.0486176E2,2.6539655E2,1.8835626E2,2.1999815E2],"categories":[],"categories_nodes":[],"categories_segments":[],"categories_sizes":[],"default_left":[0,0,0,0,0,0,0,0,0,0,0,0,0,0,0],"id":46,"left_children":[1,3,5,7,9,11,13,-1,-1,-1,-1,-1,-1,-1,-1],"loss_changes":[7.1077095E11,6.1724426E10,1.670088E11,2.1983134E10,4.237715E10,5.6034014E11,5.2824113E10,0E0,0E0,0E0,0E0,0E0,0E0,0E0,0E0],"parents":[2147483647,0,0,1,1,2,2,3,3,4,4,5,5,6,6],"right_children":[2,4,6,8,10,12,14,-1,-1,-1,-1,-1,-1,-1,-1],"split_conditions":[9E0,6.7E1,2.59E2,7E0,1.6E2,1.6E2,3.35E2,1.878819E2,2.2367372E2,1.5411095E2,1.751229E2,2.0486176E2,2.6539655E2,1.8835626E2,2.1999815E2],"split_indices":[1,0,0,1,0,0,0,0,0,0,0,0,0,0,0],"split_type":[0,0,0,0,0,0,0,0,0,0,0,0,0,0,0],"sum_hessian":[1.45357E5,5.4489E4,9.0868E4,1.0097E4,4.4392E4,6.513E4,2.5738E4,7.853E3,2.244E3,1.4212E4,3.018E4,4.0545E4,2.4585E4,1.8238E4,7.5E3],"tree_param":{"num_deleted":"0","num_feature":"9","num_nodes":"15","size_leaf_vector":"1"}},{"base_weights":[2.000361E4,1.6903666E4,2.1552414E4,1.8922756E4,1.6435484E4,2.040375E4,2.3223209E4,1.8360703E2,2.0599379E2,1.604338E2,1.9035994E2,2.1240695E2,1.8515768E2,2.407049E2,2.0129408E2],"categories":[],"categories_nodes":[],"categories_segments":[],"categories_sizes":[],"default_left":[0,0,1,0,0,0,0,0,0,0,0,0,0,0,0],"id":47,"left_children":[1,3,5,7,9,11,13,-1,-1,-1,-1,-1,-1,-1,-1],"loss_changes":[6.9752534E11,4.5473595E10,1.8554762E11,8.20668E9,3.979241E10,9.037886E10,1.0300791E11,0E0,0E0,0E0,0E0,0E0,0E0,0E0,0E0],"parents":[2147483647,0,0,1,1,2,2,3,3,4,4,5,5,6,6],"right_children":[2,4,6,8,10,12,14,-1,-1,-1,-1,-1,-1,-1,-1],"split_conditions":[8E0,6.8E1,3.2548E4,6E0,3.9206E4,5E0,2.55E2,1.8360703E2,2.0599379E2,1.604338E2,1.9035994E2,2.1240695E2,1.8515768E2,2.407049E2,2.0129408E2],"split_indices":[1,0,6,1,6,2,0,0,0,0,0,0,0,0,0],"split_type":[0,0,0,0,0,0,0,0,0,0,0,0,0,0,0],"sum_hessian":[1.45357E5,4.8432E4,9.6925E4,9.109E3,3.9323E4,5.7445E4,3.948E4,6.831E3,2.278E3,3.4177E4,5.146E3,3.9794E4,1.7651E4,3.0987E4,8.493E3],"tree_param":{"num_deleted":"0","num_feature":"9","num_nodes":"15","size_leaf_vector":"1"}},{"base_weights":[1.9803584E4,1.6734645E4,2.1336898E4,1.8733572E4,1.6271138E4,2.0199719E4,2.2990988E4,1.8177124E2,2.0393474E2,1.4805493E2,1.6953337E2,2.102829E2,1.8330623E2,2.1029901E2,2.4322595E2],"categories":[],"categories_nodes":[],"categories_segments":[],"categories_sizes":[],"default_left":[0,0,1,0,0,0,0,0,0,0,0,0,0,0,0],"id":48,"left_children":[1,3,5,7,9,11,13,-1,-1,-1,-1,-1,-1,-1,-1],"loss_changes":[6.836464E11,4.4569723E10,1.8185244E11,8.0438886E9,3.9067845E10,8.85837E10,1.0259058E11,0E0,0E0,0E0,0E0,0E0,0E0,0E0,0E0],"parents":[2147483647,0,0,1,1,2,2,3,3,4,4,5,5,6,6],"right_children":[2,4,6,8,10,12,14,-1,-1,-1,-1,-1,-1,-1,-1],"split_conditions":[8E0,6.8E1,3.2548E4,6E0,1.6E2,5E0,1.58E2,1.8177124E2,2.0393474E2,1.4805493E2,1.6953337E2,2.102829E2,1.8330623E2,2.1029901E2,2.4322595E2],"split_indices":[1,0,6,1,0,2,0,0,0,0,0,0,0,0,0],"split_type":[0,0,0,0,0,0,0,0,0,0,0,0,0,0,0],"sum_hessian":[1.45357E5,4.8432E4,9.6925E4,9.109E3,3.9323E4,5.7445E4,3.948E4,6.831E3,2.278E3,1.2497E4,2.6826E4,3.9794E4,1.7651E4,1.5973E4,2.3507E4],"tree_param":{"num_deleted":"0","num_feature":"9","num_nodes":"15","size_leaf_vector":"1"}},{"base_weights":[1.9605559E4,1.6831074E4,2.1269076E4,1.6275166E4,1.877415E4,2.21089E4,1.9143123E4,1.524646E2,1.7588815E2,2.0150153E2,1.532773E2,1.9857605E2,2.582072E2,1.8251593E2,2.1409402E2],"categories":[],"categories_nodes":[],"categories_segments":[],"categories_sizes":[],"default_left":[0,0,0,1,0,0,0,0,0,0,0,0,0,0,0],"id":49,"left_children":[1,3,5,7,9,11,13,-1,-1,-1,-1,-1,-1,-1,-1],"loss_changes":[6.705266E11,5.8553532E10,1.6181625E11,5.6997446E10,5.714372E10,5.4374957E11,5.1614056E10,0E0,0E0,0E0,0E0,0E0,0E0,0E0,0E0],"parents":[2147483647,0,0,1,1,2,2,3,3,4,4,5,5,6,6],"right_children":[2,4,6,8,10,12,14,-1,-1,-1,-1,-1,-1,-1,-1],"split_conditions":[9E0,7E0,2.59E2,3.3292E4,5E0,1.6E2,3.36E2,1.524646E2,1.7588815E2,2.0150153E2,1.532773E2,1.9857605E2,2.582072E2,1.8251593E2,2.1409402E2],"split_indices":[1,1,0,6,2,0,0,0,0,0,0,0,0,0,0],"split_type":[0,0,0,0,0,0,0,0,0,0,0,0,0,0,0],"sum_hessian":[1.45357E5,5.4489E4,9.0868E4,4.2375E4,1.2114E4,6.513E4,2.5738E4,2.3772E4,1.8603E4,8.654E3,3.46E3,4.0545E4,2.4585E4,1.8478E4,7.26E3],"tree_param":{"num_deleted":"0","num_feature":"9","num_nodes":"15","size_leaf_vector":"1"}},{"base_weights":[1.9409514E4,1.6662777E4,2.1056395E4,1.8837979E4,1.6167611E4,2.1887816E4,1.8951709E4,1.8061847E2,2.154484E2,1.4772359E2,1.6824135E2,1.9659033E2,2.5562527E2,1.8048586E2,2.114516E2],"categories":[],"categories_nodes":[],"categories_segments":[],"categories_sizes":[],"default_left":[0,0,0,0,0,0,0,0,0,0,0,0,0,0,0],"id":50,"left_children":[1,3,5,7,9,11,13,-1,-1,-1,-1,-1,-1,-1,-1],"loss_changes":[6.571845E11,5.838576E10,1.5859502E11,2.0825768E10,4.0416313E10,5.3293036E11,5.0605326E10,0E0,0E0,0E0,0E0,0E0,0E0,0E0,0E0],"parents":[2147483647,0,0,1,1,2,2,3,3,4,4,5,5,6,6],"right_children":[2,4,6,8,10,12,14,-1,-1,-1,-1,-1,-1,-1,-1],"split_conditions":[9E0,6.7E1,2.59E2,7E0,1.6E2,1.6E2,3.35E2,1.8061847E2,2.154484E2,1.4772359E2,1.6824135E2,1.9659033E2,2.5562527E2,1.8048586E2,2.114516E2],"split_indices":[1,0,0,1,0,0,0,0,0,0,0,0,0,0,0],"split_type":[0,0,0,0,0,0,0,0,0,0,0,0,0,0,0],"sum_hessian":[1.45357E5,5.4489E4,9.0868E4,1.0097E4,4.4392E4,6.513E4,2.5738E4,7.853E3,2.244E3,1.4212E4,3.018E4,4.0545E4,2.4585E4,1.8238E4,7.5E3],"tree_param":{"num_deleted":"0","num_feature":"9","num_nodes":"15","size_leaf_vector":"1"}},{"base_weights":[1.921543E4,1.6235458E4,2.0704295E4,1.8192498E4,1.5781667E4,1.9592451E4,2.2321533E4,1.764668E2,1.9820772E2,1.539681E2,1.8334196E2,2.0411671E2,1.7744476E2,2.3152086E2,1.9288869E2],"categories":[],"categories_nodes":[],"categories_segments":[],"categories_sizes":[],"default_left":[0,0,1,0,0,0,0,0,0,0,0,0,0,0,0],"id":51,"left_children":[1,3,5,7,9,11,13,-1,-1,-1,-1,-1,-1,-1,-1],"loss_changes":[6.4458064E11,4.2725278E10,1.738497E11,7.7466173E9,3.834852E10,8.660609E10,9.899816E10,0E0,0E0,0E0,0E0,0E0,0E0,0E0,0E0],"parents":[2147483647,0,0,1,1,2,2,3,3,4,4,5,5,6,6],"right_children":[2,4,6,8,10,12,14,-1,-1,-1,-1,-1,-1,-1,-1],"split_conditions":[8E0,6.8E1,3.2548E4,6E0,3.9206E4,5E0,2.55E2,1.764668E2,1.9820772E2,1.539681E2,1.8334196E2,2.0411671E2,1.7744476E2,2.3152086E2,1.9288869E2],"split_indices":[1,0,6,1,6,2,0,0,0,0,0,0,0,0,0],"split_type":[0,0,0,0,0,0,0,0,0,0,0,0,0,0,0],"sum_hessian":[1.45357E5,4.8432E4,9.6925E4,9.109E3,3.9323E4,5.7445E4,3.948E4,6.831E3,2.278E3,3.4177E4,5.146E3,3.9794E4,1.7651E4,3.0987E4,8.493E3],"tree_param":{"num_deleted":"0","num_feature":"9","num_nodes":"15","size_leaf_vector":"1"}},{"base_weights":[1.9023285E4,1.6329831E4,2.0638219E4,1.8446305E4,1.5839164E4,2.1456328E4,1.8567238E4,1.7682246E2,2.1110565E2,1.443624E2,1.6492293E2,1.9252577E2,2.508977E2,1.7693033E2,2.0789499E2],"categories":[],"categories_nodes":[],"categories_segments":[],"categories_sizes":[],"default_left":[0,0,0,0,0,0,0,0,0,0,0,0,0,0,0],"id":52,"left_children":[1,3,5,7,9,11,13,-1,-1,-1,-1,-1,-1,-1,-1],"loss_changes":[6.319306E11,5.629595E10,1.5356186E11,2.0490224E10,4.029992E10,5.2103322E11,4.9635394E10,0E0,0E0,0E0,0E0,0E0,0E0,0E0,0E0],"parents":[2147483647,0,0,1,1,2,2,3,3,4,4,5,5,6,6],"right_children":[2,4,6,8,10,12,14,-1,-1,-1,-1,-1,-1,-1,-1],"split_conditions":[9E0,6.8E1,2.59E2,7E0,1.6E2,1.6E2,3.36E2,1.7682246E2,2.1110565E2,1.443624E2,1.6492293E2,1.9252577E2,2.508977E2,1.7693033E2,2.0789499E2],"split_indices":[1,0,0,1,0,0,0,0,0,0,0,0,0,0,0],"split_type":[0,0,0,0,0,0,0,0,0,0,0,0,0,0,0],"sum_hessian":[1.45357E5,5.4489E4,9.0868E4,1.0248E4,4.4241E4,6.513E4,2.5738E4,7.97E3,2.278E3,1.4061E4,3.018E4,4.0545E4,2.4585E4,1.8478E4,7.26E3],"tree_param":{"num_deleted":"0","num_feature":"9","num_nodes":"15","size_leaf_vector":"1"}},{"base_weights":[1.8833064E4,1.591046E4,2.0293266E4,1.7847188E4,1.5469485E4,1.919971E4,2.1883908E4,1.7313443E2,1.9439754E2,1.8069879E2,1.509724E2,2.0010933E2,1.7369786E2,2.2700328E2,1.8902847E2],"categories":[],"categories_nodes":[],"categories_segments":[],"categories_sizes":[],"default_left":[0,0,1,0,0,0,0,0,0,0,0,0,0,0,0],"id":53,"left_children":[1,3,5,7,9,11,13,-1,-1,-1,-1,-1,-1,-1,-1],"loss_changes":[6.200104E11,4.10874E10,1.68179E11,7.2933704E9,3.79228E10,8.493046E10,9.5657394E10,0E0,0E0,0E0,0E0,0E0,0E0,0E0,0E0],"parents":[2147483647,0,0,1,1,2,2,3,3,4,4,5,5,6,6],"right_children":[2,4,6,8,10,12,14,-1,-1,-1,-1,-1,-1,-1,-1],"split_conditions":[8E0,6.7E1,3.2548E4,6E0,1E0,5E0,2.55E2,1.7313443E2,1.9439754E2,1.8069879E2,1.509724E2,2.0010933E2,1.7369786E2,2.2700328E2,1.8902847E2],"split_indices":[1,0,6,1,1,2,0,0,0,0,0,0,0,0,0],"split_type":[0,0,0,0,0,0,0,0,0,0,0,0,0,0,0],"sum_hessian":[1.45357E5,4.8432E4,9.6925E4,8.975E3,3.9457E4,5.7445E4,3.948E4,6.731E3,2.244E3,4.935E3,3.4522E4,3.9794E4,1.7651E4,3.0987E4,8.493E3],"tree_param":{"num_deleted":"0","num_feature":"9","num_nodes":"15","size_leaf_vector":"1"}},{"base_weights":[1.8644742E4,1.5751369E4,2.0090342E4,1.7651441E4,1.5310788E4,1.909397E4,2.1802238E4,1.7120581E2,1.9235107E2,1.4931213E2,1.7828334E2,1.988028E2,1.7300342E2,2.2617014E2,1.8621555E2],"categories":[],"categories_nodes":[],"categories_segments":[],"categories_sizes":[],"default_left":[0,0,1,0,0,0,0,0,0,0,0,0,0,0,0],"id":54,"left_children":[1,3,5,7,9,11,13,-1,-1,-1,-1,-1,-1,-1,-1],"loss_changes":[6.076666E11,4.0275804E10,1.6490745E11,7.329284E9,3.731148E10,8.607341E10,9.197375E10,0E0,0E0,0E0,0E0,0E0,0E0,0E0,0E0],"parents":[2147483647,0,0,1,1,2,2,3,3,4,4,5,5,6,6],"right_children":[2,4,6,8,10,12,14,-1,-1,-1,-1,-1,-1,-1,-1],"split_conditions":[8E0,6.8E1,3.316E4,6E0,3.9206E4,5E0,2.55E2,1.7120581E2,1.9235107E2,1.4931213E2,1.7828334E2,1.988028E2,1.7300342E2,2.2617014E2,1.8621555E2],"split_indices":[1,0,6,1,6,2,0,0,0,0,0,0,0,0,0],"split_type":[0,0,0,0,0,0,0,0,0,0,0,0,0,0,0],"sum_hessian":[1.45357E5,4.8432E4,9.6925E4,9.109E3,3.9323E4,6.1274E4,3.5651E4,6.831E3,2.278E3,3.4177E4,5.146E3,4.2592E4,1.8682E4,2.8376E4,7.275E3],"tree_param":{"num_deleted":"0","num_feature":"9","num_nodes":"15","size_leaf_vector":"1"}},{"base_weights":[1.8458307E4,1.5842116E4,2.0026912E4,1.530644E4,1.7714506E4,1.8503707E4,2.1108568E4,1.4470918E2,1.6842056E2,1.9066158E2,1.4329279E2,2.0958002E2,1.6527388E2,2.4479626E2,1.8272707E2],"categories":[],"categories_nodes":[],"categories_segments":[],"categories_sizes":[],"default_left":[0,0,0,1,0,0,0,0,0,0,0,0,0,0,0],"id":55,"left_children":[1,3,5,7,9,11,13,-1,-1,-1,-1,-1,-1,-1,-1],"loss_changes":[5.9619934E11,5.4382297E10,1.4932142E11,5.4126445E10,5.5160603E10,1.8271542E11,5.0745836E11,0E0,0E0,0E0,0E0,0E0,0E0,0E0,0E0],"parents":[2147483647,0,0,1,1,2,2,3,3,4,4,5,5,6,6],"right_children":[2,4,6,8,10,12,14,-1,-1,-1,-1,-1,-1,-1,-1],"split_conditions":[9E0,7E0,1.49E2,3.4715E4,5E0,6.7E1,2.46E2,1.4470918E2,1.6842056E2,1.9066158E2,1.4329279E2,2.0958002E2,1.6527388E2,2.4479626E2,1.8272707E2],"split_indices":[1,1,0,6,2,0,0,0,0,0,0,0,0,0,0],"split_type":[0,0,0,0,0,0,0,0,0,0,0,0,0,0,0],"sum_hessian":[1.45357E5,5.4489E4,9.0868E4,4.2375E4,1.2114E4,3.774E4,5.3128E4,2.745E4,1.4925E4,8.654E3,3.46E3,1.683E4,2.091E4,2.427E4,2.8858E4],"tree_param":{"num_deleted":"0","num_feature":"9","num_nodes":"15","size_leaf_vector":"1"}},{"base_weights":[1.8273732E4,1.5683708E4,1.9826652E4,1.5153383E4,1.7537389E4,1.831868E4,2.089749E4,1.4160057E2,1.6421883E2,1.8875519E2,1.4186028E2,2.0748434E2,1.6362123E2,2.4234842E2,1.8089984E2],"categories":[],"categories_nodes":[],"categories_segments":[],"categories_sizes":[],"default_left":[0,0,0,1,0,0,0,0,0,0,0,0,0,0,0],"id":56,"left_children":[1,3,5,7,9,11,13,-1,-1,-1,-1,-1,-1,-1,-1],"loss_changes":[5.8433366E11,5.3300167E10,1.4635185E11,5.3162803E10,5.406248E10,1.7907896E11,4.9736267E11,0E0,0E0,0E0,0E0,0E0,0E0,0E0,0E0],"parents":[2147483647,0,0,1,1,2,2,3,3,4,4,5,5,6,6],"right_children":[2,4,6,8,10,12,14,-1,-1,-1,-1,-1,-1,-1,-1],"split_conditions":[9E0,7E0,1.49E2,3.3292E4,5E0,6.7E1,2.46E2,1.4160057E2,1.6421883E2,1.8875519E2,1.4186028E2,2.0748434E2,1.6362123E2,2.4234842E2,1.8089984E2],"split_indices":[1,1,0,6,2,0,0,0,0,0,0,0,0,0,0],"split_type":[0,0,0,0,0,0,0,0,0,0,0,0,0,0,0],"sum_hessian":[1.45357E5,5.4489E4,9.0868E4,4.2375E4,1.2114E4,3.774E4,5.3128E4,2.3772E4,1.8603E4,8.654E3,3.46E3,1.683E4,2.091E4,2.427E4,2.8858E4],"tree_param":{"num_deleted":"0","num_feature":"9","num_nodes":"15","size_leaf_vector":"1"}},{"base_weights":[1.8091006E4,1.5526882E4,1.9628395E4,1.7601156E4,1.5054701E4,1.8135502E4,2.0688523E4,1.6862549E2,2.0177295E2,1.3699693E2,1.569231E2,2.0540962E2,1.6198509E2,2.3992503E2,1.7909091E2],"categories":[],"categories_nodes":[],"categories_segments":[],"categories_sizes":[],"default_left":[0,0,0,0,0,0,0,0,0,0,0,0,0,0,0],"id":57,"left_children":[1,3,5,7,9,11,13,-1,-1,-1,-1,-1,-1,-1,-1],"loss_changes":[5.7270285E11,5.310513E10,1.434368E11,1.8873844E10,3.8139855E10,1.755159E11,4.874662E11,0E0,0E0,0E0,0E0,0E0,0E0,0E0,0E0],"parents":[2147483647,0,0,1,1,2,2,3,3,4,4,5,5,6,6],"right_children":[2,4,6,8,10,12,14,-1,-1,-1,-1,-1,-1,-1,-1],"split_conditions":[9E0,6.7E1,1.49E2,7E0,1.6E2,6.7E1,2.46E2,1.6862549E2,2.0177295E2,1.3699693E2,1.569231E2,2.0540962E2,1.6198509E2,2.3992503E2,1.7909091E2],"split_indices":[1,0,0,1,0,0,0,0,0,0,0,0,0,0,0],"split_type":[0,0,0,0,0,0,0,0,0,0,0,0,0,0,0],"sum_hessian":[1.45357E5,5.4489E4,9.0868E4,1.0097E4,4.4392E4,3.774E4,5.3128E4,7.853E3,2.244E3,1.4212E4,3.018E4,1.683E4,2.091E4,2.427E4,2.8858E4],"tree_param":{"num_deleted":"0","num_feature":"9","num_nodes":"15","size_leaf_vector":"1"}},{"base_weights":[1.7910105E4,1.5128635E4,1.9299795E4,1.698574E4,1.4698023E4,2.0109162E4,1.7274408E4,1.6465915E2,1.8536621E2,1.7273283E2,1.4329413E2,1.9412273E2,2.266957E2,1.4958125E2,1.7948517E2],"categories":[],"categories_nodes":[],"categories_segments":[],"categories_sizes":[],"default_left":[0,0,0,0,0,1,0,0,0,0,0,0,0,0,0],"id":58,"left_children":[1,3,5,7,9,11,13,-1,-1,-1,-1,-1,-1,-1,-1],"loss_changes":[5.615712E11,3.848169E10,1.585405E11,7.039353E9,3.7081317E10,1.23115405E11,4.2953343E10,0E0,0E0,0E0,0E0,0E0,0E0,0E0,0E0],"parents":[2147483647,0,0,1,1,2,2,3,3,4,4,5,5,6,6],"right_children":[2,4,6,8,10,12,14,-1,-1,-1,-1,-1,-1,-1,-1],"split_conditions":[8E0,6.8E1,5E0,6E0,1E0,3.6592E4,2.6562E4,1.6465915E2,1.8536621E2,1.7273283E2,1.4329413E2,1.9412273E2,2.266957E2,1.4958125E2,1.7948517E2],"split_indices":[1,0,2,1,1,6,6,0,0,0,0,0,0,0,0],"split_type":[0,0,0,0,0,0,0,0,0,0,0,0,0,0,0],"sum_hessian":[1.45357E5,4.8432E4,9.6925E4,9.109E3,3.9323E4,6.9245E4,2.768E4,6.831E3,2.278E3,4.918E3,3.4405E4,5.4437E4,1.4808E4,6.245E3,2.1435E4],"tree_param":{"num_deleted":"0","num_feature":"9","num_nodes":"15","size_leaf_vector":"1"}},{"base_weights":[1.7731014E4,1.5216626E4,1.9238582E4,1.4696683E4,1.7034035E4,1.776203E4,2.0287111E4,1.3975424E2,1.6396382E2,1.835402E2,1.3728194E2,2.0139198E2,1.5847826E2,2.3606833E2,1.7582137E2],"categories":[],"categories_nodes":[],"categories_segments":[],"categories_sizes":[],"default_left":[0,0,0,1,0,0,0,0,0,0,0,0,0,0,0],"id":59,"left_children":[1,3,5,7,9,11,13,-1,-1,-1,-1,-1,-1,-1,-1],"loss_changes":[5.507037E11,5.1240763E10,1.4032463E11,5.172101E10,5.2613874E10,1.7141701E11,4.7667007E11,0E0,0E0,0E0,0E0,0E0,0E0,0E0,0E0],"parents":[2147483647,0,0,1,1,2,2,3,3,4,4,5,5,6,6],"right_children":[2,4,6,8,10,12,14,-1,-1,-1,-1,-1,-1,-1,-1],"split_conditions":[9E0,7E0,1.49E2,3.5719E4,5E0,6.7E1,9E0,1.3975424E2,1.6396382E2,1.835402E2,1.3728194E2,2.0139198E2,1.5847826E2,2.3606833E2,1.7582137E2],"split_indices":[1,1,0,6,2,0,4,0,0,0,0,0,0,0,0],"split_type":[0,0,0,0,0,0,0,0,0,0,0,0,0,0,0],"sum_hessian":[1.45357E5,5.4489E4,9.0868E4,4.2375E4,1.2114E4,3.774E4,5.3128E4,2.9757E4,1.2618E4,8.654E3,3.46E3,1.683E4,2.091E4,2.385E4,2.9278E4],"tree_param":{"num_deleted":"0","num_feature":"9","num_nodes":"15","size_leaf_vector":"1"}},{"base_weights":[1.7553713E4,1.5064471E4,1.9046205E4,1.7080479E4,1.4597107E4,1.758442E4,2.0084248E4,1.6357797E2,1.9600627E2,1.3235445E2,1.5231052E2,1.993782E2,1.5689355E2,2.3319241E2,1.7362859E2],"categories":[],"categories_nodes":[],"categories_segments":[],"categories_sizes":[],"default_left":[0,0,0,0,0,0,0,0,0,0,0,0,0,0,0],"id":60,"left_children":[1,3,5,7,9,11,13,-1,-1,-1,-1,-1,-1,-1,-1],"loss_changes":[5.397482E11,5.1092914E10,1.3753123E11,1.8345361E10,3.798886E10,1.68006E11,4.6732725E11,0E0,0E0,0E0,0E0,0E0,0E0,0E0,0E0],"parents":[2147483647,0,0,1,1,2,2,3,3,4,4,5,5,6,6],"right_children":[2,4,6,8,10,12,14,-1,-1,-1,-1,-1,-1,-1,-1],"split_conditions":[9E0,6.8E1,1.49E2,7E0,1.6E2,6.7E1,2.46E2,1.6357797E2,1.9600627E2,1.3235445E2,1.5231052E2,1.993782E2,1.5689355E2,2.3319241E2,1.7362859E2],"split_indices":[1,0,0,1,0,0,0,0,0,0,0,0,0,0,0],"split_type":[0,0,0,0,0,0,0,0,0,0,0,0,0,0,0],"sum_hessian":[1.45357E5,5.4489E4,9.0868E4,1.0248E4,4.4241E4,3.774E4,5.3128E4,7.97E3,2.278E3,1.4061E4,3.018E4,1.683E4,2.091E4,2.427E4,2.8858E4],"tree_param":{"num_deleted":"0","num_feature":"9","num_nodes":"15","size_leaf_vector":"1"}},{"base_weights":[1.7378186E4,1.4400445E4,1.8603314E4,1.3431724E4,1.5637546E4,1.9435354E4,1.6521295E4,1.573165E2,1.295513E2,1.8077576E2,1.5008548E2,1.8782028E2,2.2018251E2,1.4296054E2,1.7335316E2],"categories":[],"categories_nodes":[],"categories_segments":[],"categories_sizes":[],"default_left":[0,1,0,0,0,1,0,0,0,0,0,0,0,0,0],"id":61,"left_children":[1,3,5,7,9,11,13,-1,-1,-1,-1,-1,-1,-1,-1],"loss_changes":[5.3001322E11,5.057387E10,1.7807756E11,2.5854476E10,2.8281668E10,1.2373826E11,5.302649E10,0E0,0E0,0E0,0E0,0E0,0E0,0E0,0E0],"parents":[2147483647,0,0,1,1,2,2,3,3,4,4,5,5,6,6],"right_children":[2,4,6,8,10,12,14,-1,-1,-1,-1,-1,-1,-1,-1],"split_conditions":[7E0,3.3292E4,5E0,8.5E1,1E0,3.6592E4,2.6957E4,1.573165E2,1.295513E2,1.8077576E2,1.5008548E2,1.8782028E2,2.2018251E2,1.4296054E2,1.7335316E2],"split_indices":[1,6,2,0,1,6,6,0,0,0,0,0,0,0,0],"split_type":[0,0,0,0,0,0,0,0,0,0,0,0,0,0,0],"sum_hessian":[1.45357E5,4.2375E4,1.02982E5,2.3772E4,1.8603E4,7.3572E4,2.941E4,4.075E3,1.9697E4,3.807E3,1.4796E4,5.8726E4,1.4846E4,7.882E3,2.1528E4],"tree_param":{"num_deleted":"0","num_feature":"9","num_nodes":"15","size_leaf_vector":"1"}},{"base_weights":[1.7204412E4,1.4762178E4,1.866872E4,1.6765691E4,1.4306109E4,1.7222963E4,1.9695387E4,1.6055963E2,1.9241165E2,1.2984378E2,1.4928072E2,1.95485E2,1.5350345E2,2.2945807E2,1.7046884E2],"categories":[],"categories_nodes":[],"categories_segments":[],"categories_sizes":[],"default_left":[0,0,0,0,0,0,0,0,0,0,0,0,0,0,0],"id":62,"left_children":[1,3,5,7,9,11,13,-1,-1,-1,-1,-1,-1,-1,-1],"loss_changes":[5.1955263E11,4.954941E10,1.3453859E11,1.7432576E10,3.6299604E10,1.64056E11,4.569841E11,0E0,0E0,0E0,0E0,0E0,0E0,0E0,0E0],"parents":[2147483647,0,0,1,1,2,2,3,3,4,4,5,5,6,6],"right_children":[2,4,6,8,10,12,14,-1,-1,-1,-1,-1,-1,-1,-1],"split_conditions":[9E0,6.7E1,1.49E2,7E0,1.6E2,6.7E1,9E0,1.6055963E2,1.9241165E2,1.2984378E2,1.4928072E2,1.95485E2,1.5350345E2,2.2945807E2,1.7046884E2],"split_indices":[1,0,0,1,0,0,4,0,0,0,0,0,0,0,0],"split_type":[0,0,0,0,0,0,0,0,0,0,0,0,0,0,0],"sum_hessian":[1.45357E5,5.4489E4,9.0868E4,1.0097E4,4.4392E4,3.774E4,5.3128E4,7.853E3,2.244E3,1.4212E4,3.018E4,1.683E4,2.091E4,2.385E4,2.9278E4],"tree_param":{"num_deleted":"0","num_feature":"9","num_nodes":"15","size_leaf_vector":"1"}},{"base_weights":[1.7032379E4,1.4110156E4,1.8234664E4,1.3312187E4,1.557679E4,1.9058377E4,1.6173491E4,1.5384427E2,1.2823305E2,1.8033199E2,1.4890698E2,1.8417104E2,2.1593634E2,1.3981918E2,1.6975201E2],"categories":[],"categories_nodes":[],"categories_segments":[],"categories_sizes":[],"default_left":[0,1,0,0,0,1,0,0,0,0,0,0,0,0,0],"id":63,"left_children":[1,3,5,7,9,11,13,-1,-1,-1,-1,-1,-1,-1,-1],"loss_changes":[5.104426E11,4.938688E10,1.7453548E11,2.7612676E10,2.4886378E10,1.192168E11,5.1437896E10,0E0,0E0,0E0,0E0,0E0,0E0,0E0,0E0],"parents":[2147483647,0,0,1,1,2,2,3,3,4,4,5,5,6,6],"right_children":[2,4,6,8,10,12,14,-1,-1,-1,-1,-1,-1,-1,-1],"split_conditions":[7E0,3.4715E4,5E0,8.5E1,1E0,3.6592E4,2.6957E4,1.5384427E2,1.2823305E2,1.8033199E2,1.4890698E2,1.8417104E2,2.1593634E2,1.3981918E2,1.6975201E2],"split_indices":[1,6,2,0,1,6,6,0,0,0,0,0,0,0,0],"split_type":[0,0,0,0,0,0,0,0,0,0,0,0,0,0,0],"sum_hessian":[1.45357E5,4.2375E4,1.02982E5,2.745E4,1.4925E4,7.3572E4,2.941E4,5.234E3,2.2216E4,3.253E3,1.1672E4,5.8726E4,1.4846E4,7.882E3,2.1528E4],"tree_param":{"num_deleted":"0","num_feature":"9","num_nodes":"15","size_leaf_vector":"1"}},{"base_weights":[1.6862064E4,1.4236703E4,1.8173758E4,1.651926E4,1.3910118E4,1.8957734E4,1.6211926E4,1.5099973E2,1.8047937E2,1.5788187E2,1.3450644E2,1.976326E2,1.6918396E2,1.4618338E2,1.7114375E2],"categories":[],"categories_nodes":[],"categories_segments":[],"categories_sizes":[],"default_left":[0,0,0,1,0,0,0,0,0,0,0,0,0,0,0],"id":64,"left_children":[1,3,5,7,9,11,13,-1,-1,-1,-1,-1,-1,-1,-1],"loss_changes":[5.0030497E11,3.587493E10,1.4876777E11,1.2868911E10,3.6356227E10,1.1342027E11,3.955858E10,0E0,0E0,0E0,0E0,0E0,0E0,0E0,0E0],"parents":[2147483647,0,0,1,1,2,2,3,3,4,4,5,5,6,6],"right_children":[2,4,6,8,10,12,14,-1,-1,-1,-1,-1,-1,-1,-1],"split_conditions":[8E0,1E0,5E0,3.5719E4,7.1E1,2.59E2,2.868E4,1.5099973E2,1.8047937E2,1.5788187E2,1.3450644E2,1.976326E2,1.6918396E2,1.4618338E2,1.7114375E2],"split_indices":[1,1,2,6,0,0,6,0,0,0,0,0,0,0,0],"split_type":[0,0,0,0,0,0,0,0,0,0,0,0,0,0,0],"sum_hessian":[1.45357E5,4.8432E4,9.6925E4,6.056E3,4.2376E4,6.9245E4,2.768E4,3.146E3,2.91E3,8.323E3,3.4053E4,4.9632E4,1.9613E4,1.0014E4,1.7666E4],"tree_param":{"num_deleted":"0","num_feature":"9","num_nodes":"15","size_leaf_vector":"1"}},{"base_weights":[1.6693451E4,1.3826249E4,1.7873102E4,1.3130966E4,1.5464766E4,1.8681193E4,1.5851013E4,1.5055736E2,1.2642714E2,1.7867519E2,1.4742766E2,1.7997028E2,2.0999487E2,1.369718E2,1.6638918E2],"categories":[],"categories_nodes":[],"categories_segments":[],"categories_sizes":[],"default_left":[0,1,0,0,0,1,0,0,0,0,0,0,0,0,0],"id":65,"left_children":[1,3,5,7,9,11,13,-1,-1,-1,-1,-1,-1,-1,-1],"loss_changes":[4.9139627E11,4.807354E10,1.6798397E11,2.777573E10,2.1627666E10,1.1631434E11,4.9683104E10,0E0,0E0,0E0,0E0,0E0,0E0,0E0,0E0],"parents":[2147483647,0,0,1,1,2,2,3,3,4,4,5,5,6,6],"right_children":[2,4,6,8,10,12,14,-1,-1,-1,-1,-1,-1,-1,-1],"split_conditions":[7E0,3.5719E4,5E0,8.5E1,1E0,3.5907E4,2.6957E4,1.5055736E2,1.2642714E2,1.7867519E2,1.4742766E2,1.7997028E2,2.0999487E2,1.369718E2,1.6638918E2],"split_indices":[1,6,2,0,1,6,6,0,0,0,0,0,0,0,0],"split_type":[0,0,0,0,0,0,0,0,0,0,0,0,0,0,0],"sum_hessian":[1.45357E5,4.2375E4,1.02982E5,2.9757E4,1.2618E4,7.3572E4,2.941E4,6.015E3,2.3742E4,2.91E3,9.708E3,5.6814E4,1.6758E4,7.882E3,2.1528E4],"tree_param":{"num_deleted":"0","num_feature":"9","num_nodes":"15","size_leaf_vector":"1"}},{"base_weights":[1.6526527E4,1.4173995E4,1.793705E4,1.6117818E4,1.3731518E4,1.6485734E4,1.894408E4,1.5427776E2,1.8524713E2,1.242792E2,1.434496E2,1.8794586E2,1.4580103E2,2.1961371E2,1.625763E2],"categories":[],"categories_nodes":[],"categories_segments":[],"categories_sizes":[],"default_left":[0,0,0,0,0,0,0,0,0,0,0,0,0,0,0],"id":66,"left_children":[1,3,5,7,9,11,13,-1,-1,-1,-1,-1,-1,-1,-1],"loss_changes":[4.820891E11,4.6645903E10,1.3249387E11,1.648545E10,3.5321807E10,1.6353486E11,4.3442923E11,0E0,0E0,0E0,0E0,0E0,0E0,0E0,0E0],"parents":[2147483647,0,0,1,1,2,2,3,3,4,4,5,5,6,6],"right_children":[2,4,6,8,10,12,14,-1,-1,-1,-1,-1,-1,-1,-1],"split_conditions":[9E0,6.7E1,1.47E2,7E0,1.6E2,6.7E1,2.48E2,1.5427776E2,1.8524713E2,1.242792E2,1.434496E2,1.8794586E2,1.4580103E2,2.1961371E2,1.625763E2],"split_indices":[1,0,0,1,0,0,0,0,0,0,0,0,0,0,0],"split_type":[0,0,0,0,0,0,0,0,0,0,0,0,0,0,0],"sum_hessian":[1.45357E5,5.4489E4,9.0868E4,1.0097E4,4.4392E4,3.723E4,5.3638E4,7.853E3,2.244E3,1.4212E4,3.018E4,1.683E4,2.04E4,2.526E4,2.8378E4],"tree_param":{"num_deleted":"0","num_feature":"9","num_nodes":"15","size_leaf_vector":"1"}},{"base_weights":[1.63612705E4,1.3547548E4,1.7518918E4,1.2613881E4,1.4739898E4,1.8318912E4,1.5517097E4,1.4817235E2,1.2157312E2,1.7087192E2,1.4134828E2,1.7789058E2,2.1213066E2,1.3395923E2,1.6293059E2],"categories":[],"categories_nodes":[],"categories_segments":[],"categories_sizes":[],"default_left":[0,1,0,0,0,1,0,0,0,0,0,0,0,0,0],"id":67,"left_children":[1,3,5,7,9,11,13,-1,-1,-1,-1,-1,-1,-1,-1],"loss_changes":[4.7323493E11,4.6989836E10,1.6463901E11,2.373478E10,2.6181632E10,1.124451E11,4.8190456E10,0E0,0E0,0E0,0E0,0E0,0E0,0E0,0E0],"parents":[2147483647,0,0,1,1,2,2,3,3,4,4,5,5,6,6],"right_children":[2,4,6,8,10,12,14,-1,-1,-1,-1,-1,-1,-1,-1],"split_conditions":[7E0,3.3292E4,5E0,8.5E1,1E0,3.809E4,2.6957E4,1.4817235E2,1.2157312E2,1.7087192E2,1.4134828E2,1.7789058E2,2.1213066E2,1.3395923E2,1.6293059E2],"split_indices":[1,6,2,0,1,6,6,0,0,0,0,0,0,0,0],"split_type":[0,0,0,0,0,0,0,0,0,0,0,0,0,0,0],"sum_hessian":[1.45357E5,4.2375E4,1.02982E5,2.3772E4,1.8603E4,7.3572E4,2.941E4,4.075E3,1.9697E4,3.807E3,1.4796E4,6.2193E4,1.1379E4,7.882E3,2.1528E4],"tree_param":{"num_deleted":"0","num_feature":"9","num_nodes":"15","size_leaf_vector":"1"}},{"base_weights":[1.6197666E4,1.3889443E4,1.7581625E4,1.578638E4,1.3449689E4,1.6162529E4,1.858937E4,1.5108028E2,1.8152048E2,1.21396355E2,1.4059627E2,1.8428993E2,1.4337508E2,2.1755623E2,1.6009468E2],"categories":[],"categories_nodes":[],"categories_segments":[],"categories_sizes":[],"default_left":[0,0,0,0,0,0,0,0,0,0,0,0,0,0,0],"id":68,"left_children":[1,3,5,7,9,11,13,-1,-1,-1,-1,-1,-1,-1,-1],"loss_changes":[4.6409974E11,4.524186E10,1.2965223E11,1.6172974E10,3.5181298E10,1.5584566E11,4.336428E11,0E0,0E0,0E0,0E0,0E0,0E0,0E0,0E0],"parents":[2147483647,0,0,1,1,2,2,3,3,4,4,5,5,6,6],"right_children":[2,4,6,8,10,12,14,-1,-1,-1,-1,-1,-1,-1,-1],"split_conditions":[9E0,6.8E1,1.49E2,7E0,1.6E2,6.7E1,9E0,1.5108028E2,1.8152048E2,1.21396355E2,1.4059627E2,1.8428993E2,1.4337508E2,2.1755623E2,1.6009468E2],"split_indices":[1,0,0,1,0,0,4,0,0,0,0,0,0,0,0],"split_type":[0,0,0,0,0,0,0,0,0,0,0,0,0,0,0],"sum_hessian":[1.45357E5,5.4489E4,9.0868E4,1.0248E4,4.4241E4,3.774E4,5.3128E4,7.97E3,2.278E3,1.4061E4,3.018E4,1.683E4,2.091E4,2.385E4,2.9278E4],"tree_param":{"num_deleted":"0","num_feature":"9","num_nodes":"15","size_leaf_vector":"1"}},{"base_weights":[1.6035699E4,1.3274475E4,1.7171746E4,1.2595188E4,1.4875308E4,1.7963734E4,1.5189968E4,1.4467006E2,1.21203766E2,1.7230466E2,1.416764E2,1.7303345E2,2.0201457E2,1.3100945E2,1.5954173E2],"categories":[],"categories_nodes":[],"categories_segments":[],"categories_sizes":[],"default_left":[0,1,0,0,0,1,0,0,0,0,0,0,0,0,0],"id":69,"left_children":[1,3,5,7,9,11,13,-1,-1,-1,-1,-1,-1,-1,-1],"loss_changes":[4.557447E11,4.5893026E10,1.6136326E11,2.6272596E10,2.0787757E10,1.0837452E11,4.674342E10,0E0,0E0,0E0,0E0,0E0,0E0,0E0,0E0],"parents":[2147483647,0,0,1,1,2,2,3,3,4,4,5,5,6,6],"right_children":[2,4,6,8,10,12,14,-1,-1,-1,-1,-1,-1,-1,-1],"split_conditions":[7E0,3.5719E4,5E0,8.5E1,1E0,3.5907E4,2.6957E4,1.4467006E2,1.21203766E2,1.7230466E2,1.416764E2,1.7303345E2,2.0201457E2,1.3100945E2,1.5954173E2],"split_indices":[1,6,2,0,1,6,6,0,0,0,0,0,0,0,0],"split_type":[0,0,0,0,0,0,0,0,0,0,0,0,0,0,0],"sum_hessian":[1.45357E5,4.2375E4,1.02982E5,2.9757E4,1.2618E4,7.3572E4,2.941E4,6.015E3,2.3742E4,2.91E3,9.708E3,5.6814E4,1.6758E4,7.882E3,2.1528E4],"tree_param":{"num_deleted":"0","num_feature":"9","num_nodes":"15","size_leaf_vector":"1"}},{"base_weights":[1.5875351E4,1.3610797E4,1.7233125E4,1.5530497E4,1.3189952E4,1.582931E4,1.8230023E4,1.4864023E2,1.7854947E2,1.19609146E2,1.378076E2,1.8068738E2,1.4026064E2,2.1361218E2,1.5678694E2],"categories":[],"categories_nodes":[],"categories_segments":[],"categories_sizes":[],"default_left":[0,0,0,0,0,0,0,0,0,0,0,0,0,0,0],"id":70,"left_children":[1,3,5,7,9,11,13,-1,-1,-1,-1,-1,-1,-1,-1],"loss_changes":[4.4670596E11,4.3816845E10,1.268777E11,1.4904197E10,3.229247E10,1.5215467E11,4.2409866E11,0E0,0E0,0E0,0E0,0E0,0E0,0E0,0E0],"parents":[2147483647,0,0,1,1,2,2,3,3,4,4,5,5,6,6],"right_children":[2,4,6,8,10,12,14,-1,-1,-1,-1,-1,-1,-1,-1],"split_conditions":[9E0,6.5E1,1.49E2,7E0,1.6E2,6.7E1,9E0,1.4864023E2,1.7854947E2,1.19609146E2,1.378076E2,1.8068738E2,1.4026064E2,2.1361218E2,1.5678694E2],"split_indices":[1,0,0,1,0,0,4,0,0,0,0,0,0,0,0],"split_type":[0,0,0,0,0,0,0,0,0,0,0,0,0,0,0],"sum_hessian":[1.45357E5,5.4489E4,9.0868E4,9.791E3,4.4698E4,3.774E4,5.3128E4,7.615E3,2.176E3,1.4518E4,3.018E4,1.683E4,2.091E4,2.385E4,2.9278E4],"tree_param":{"num_deleted":"0","num_feature":"9","num_nodes":"15","size_leaf_vector":"1"}},{"base_weights":[1.5716606E4,1.300684E4,1.6831482E4,1.209537E4,1.4170855E4,1.7615545E4,1.4869543E4,1.4239989E2,1.1650981E2,1.6474617E2,1.3577026E2,1.7103937E2,2.0410027E2,1.2653507E2,1.5569084E2],"categories":[],"categories_nodes":[],"categories_segments":[],"categories_sizes":[],"default_left":[0,1,0,0,0,1,0,0,0,0,0,0,0,0,0],"id":71,"left_children":[1,3,5,7,9,11,13,-1,-1,-1,-1,-1,-1,-1,-1],"loss_changes":[4.3891714E11,4.478835E10,1.5815672E11,2.2490644E10,2.5227428E10,1.0483663E11,4.5396E10,0E0,0E0,0E0,0E0,0E0,0E0,0E0,0E0],"parents":[2147483647,0,0,1,1,2,2,3,3,4,4,5,5,6,6],"right_children":[2,4,6,8,10,12,14,-1,-1,-1,-1,-1,-1,-1,-1],"split_conditions":[7E0,3.3292E4,5E0,8.5E1,1E0,3.809E4,2.6483E4,1.4239989E2,1.1650981E2,1.6474617E2,1.3577026E2,1.7103937E2,2.0410027E2,1.2653507E2,1.5569084E2],"split_indices":[1,6,2,0,1,6,6,0,0,0,0,0,0,0,0],"split_type":[0,0,0,0,0,0,0,0,0,0,0,0,0,0,0],"sum_hessian":[1.45357E5,4.2375E4,1.02982E5,2.3772E4,1.8603E4,7.3572E4,2.941E4,4.075E3,1.9697E4,3.807E3,1.4796E4,6.2193E4,1.1379E4,7.061E3,2.2349E4],"tree_param":{"num_deleted":"0","num_feature":"9","num_nodes":"15","size_leaf_vector":"1"}},{"base_weights":[1.5559448E4,1.2876784E4,1.6663174E4,1.221128E4,1.4445148E4,1.7439395E4,1.4720857E4,1.4040105E2,1.1747378E2,1.6754103E2,1.3751378E2,1.6932903E2,2.0205945E2,1.268256E2,1.546651E2],"categories":[],"categories_nodes":[],"categories_segments":[],"categories_sizes":[],"default_left":[0,1,0,0,0,1,0,0,0,0,0,0,0,0,0],"id":72,"left_children":[1,3,5,7,9,11,13,-1,-1,-1,-1,-1,-1,-1,-1],"loss_changes":[4.301804E11,4.4053823E10,1.550068E11,2.5081414E10,1.9983761E10,1.0275206E11,4.4504187E10,0E0,0E0,0E0,0E0,0E0,0E0,0E0,0E0],"parents":[2147483647,0,0,1,1,2,2,3,3,4,4,5,5,6,6],"right_children":[2,4,6,8,10,12,14,-1,-1,-1,-1,-1,-1,-1,-1],"split_conditions":[7E0,3.5719E4,5E0,8.5E1,1E0,3.809E4,2.6957E4,1.4040105E2,1.1747378E2,1.6754103E2,1.3751378E2,1.6932903E2,2.0205945E2,1.268256E2,1.546651E2],"split_indices":[1,6,2,0,1,6,6,0,0,0,0,0,0,0,0],"split_type":[0,0,0,0,0,0,0,0,0,0,0,0,0,0,0],"sum_hessian":[1.45357E5,4.2375E4,1.02982E5,2.9757E4,1.2618E4,7.3572E4,2.941E4,6.015E3,2.3742E4,2.91E3,9.708E3,6.2193E4,1.1379E4,7.882E3,2.1528E4],"tree_param":{"num_deleted":"0","num_feature":"9","num_nodes":"15","size_leaf_vector":"1"}},{"base_weights":[1.5403862E4,1.3201792E4,1.6724174E4,1.5329942E4,1.2837662E4,1.5321105E4,1.7697738E4,1.467916E2,1.7597728E2,1.3364304E2,1.1518427E2,1.754841E2,1.348281E2,2.0613846E2,1.5101399E2],"categories":[],"categories_nodes":[],"categories_segments":[],"categories_sizes":[],"default_left":[0,0,0,0,0,0,0,0,0,0,0,0,0,0,0],"id":73,"left_children":[1,3,5,7,9,11,13,-1,-1,-1,-1,-1,-1,-1,-1],"loss_changes":[4.2239787E11,4.2027975E10,1.238536E11,1.148348E10,3.2177652E10,1.5220395E11,4.0579996E11,0E0,0E0,0E0,0E0,0E0,0E0,0E0,0E0],"parents":[2147483647,0,0,1,1,2,2,3,3,4,4,5,5,6,6],"right_children":[2,4,6,8,10,12,14,-1,-1,-1,-1,-1,-1,-1,-1],"split_conditions":[9E0,5.3E1,1.47E2,7E0,5E0,6.7E1,2.48E2,1.467916E2,1.7597728E2,1.3364304E2,1.1518427E2,1.754841E2,1.348281E2,2.0613846E2,1.5101399E2],"split_indices":[1,0,0,1,2,0,0,0,0,0,0,0,0,0,0],"split_type":[0,0,0,0,0,0,0,0,0,0,0,0,0,0,0],"sum_hessian":[1.45357E5,5.4489E4,9.0868E4,7.955E3,4.6534E4,3.723E4,5.3638E4,6.187E3,1.768E3,3.3251E4,1.3283E4,1.683E4,2.04E4,2.526E4,2.8378E4],"tree_param":{"num_deleted":"0","num_feature":"9","num_nodes":"15","size_leaf_vector":"1"}},{"base_weights":[1.5249833E4,1.2616969E4,1.6333069E4,1.1958495E4,1.4168775E4,1.7100982E4,1.4411545E4,1.3760197E2,1.15014755E2,1.64544E2,1.3482028E2,1.6468585E2,1.9243857E2,1.2250624E2,1.5093694E2],"categories":[],"categories_nodes":[],"categories_segments":[],"categories_sizes":[],"default_left":[0,1,0,0,0,1,0,0,0,0,0,0,0,0,0],"id":74,"left_children":[1,3,5,7,9,11,13,-1,-1,-1,-1,-1,-1,-1,-1],"loss_changes":[4.143574E11,4.31316E10,1.5171007E11,2.434479E10,1.9585303E10,9.938613E10,4.3168825E10,0E0,0E0,0E0,0E0,0E0,0E0,0E0,0E0],"parents":[2147483647,0,0,1,1,2,2,3,3,4,4,5,5,6,6],"right_children":[2,4,6,8,10,12,14,-1,-1,-1,-1,-1,-1,-1,-1],"split_conditions":[7E0,3.5719E4,5E0,8.5E1,1E0,3.5907E4,2.6483E4,1.3760197E2,1.15014755E2,1.64544E2,1.3482028E2,1.6468585E2,1.9243857E2,1.2250624E2,1.5093694E2],"split_indices":[1,6,2,0,1,6,6,0,0,0,0,0,0,0,0],"split_type":[0,0,0,0,0,0,0,0,0,0,0,0,0,0,0],"sum_hessian":[1.45357E5,4.2375E4,1.02982E5,2.9757E4,1.2618E4,7.3572E4,2.941E4,6.015E3,2.3742E4,2.91E3,9.708E3,5.6814E4,1.6758E4,7.061E3,2.2349E4],"tree_param":{"num_deleted":"0","num_feature":"9","num_nodes":"15","size_leaf_vector":"1"}},{"base_weights":[1.5097343E4,1.2936928E4,1.6392678E4,1.4737822E4,1.2519444E4,1.5020574E4,1.7367066E4,1.3885947E2,1.6436264E2,1.1245448E2,1.3112613E2,1.7205574E2,1.3261177E2,2.0427171E2,1.4873674E2],"categories":[],"categories_nodes":[],"categories_segments":[],"categories_sizes":[],"default_left":[0,0,0,0,0,0,0,0,0,0,0,0,0,0,0],"id":75,"left_children":[1,3,5,7,9,11,13,-1,-1,-1,-1,-1,-1,-1,-1],"loss_changes":[4.0656437E11,4.0783315E10,1.2122797E11,1.4600634E10,3.3285997E10,1.448592E11,4.050733E11,0E0,0E0,0E0,0E0,0E0,0E0,0E0,0E0],"parents":[2147483647,0,0,1,1,2,2,3,3,4,4,5,5,6,6],"right_children":[2,4,6,8,10,12,14,-1,-1,-1,-1,-1,-1,-1,-1],"split_conditions":[9E0,6.8E1,1.49E2,6E0,1.6E2,6.7E1,9E0,1.3885947E2,1.6436264E2,1.1245448E2,1.3112613E2,1.7205574E2,1.3261177E2,2.0427171E2,1.4873674E2],"split_indices":[1,0,0,1,0,0,4,0,0,0,0,0,0,0,0],"split_type":[0,0,0,0,0,0,0,0,0,0,0,0,0,0,0],"sum_hessian":[1.45357E5,5.4489E4,9.0868E4,1.0248E4,4.4241E4,3.774E4,5.3128E4,6.831E3,3.417E3,1.4061E4,3.018E4,1.683E4,2.091E4,2.385E4,2.9278E4],"tree_param":{"num_deleted":"0","num_feature":"9","num_nodes":"15","size_leaf_vector":"1"}},{"base_weights":[1.4946378E4,1.2362366E4,1.6009515E4,1.1477474E4,1.3492457E4,1.6769742E4,1.4107229E4,1.3541444E2,1.1049805E2,1.5735045E2,1.2914417E2,1.7491304E2,1.4942953E2,1.2595699E2,1.5054509E2],"categories":[],"categories_nodes":[],"categories_segments":[],"categories_sizes":[],"default_left":[0,1,0,0,0,0,1,0,0,0,0,0,0,0,0],"id":76,"left_children":[1,3,5,7,9,11,13,-1,-1,-1,-1,-1,-1,-1,-1],"loss_changes":[3.9912158E11,4.2221437E10,1.4869437E11,2.0834943E10,2.39133E10,9.671855E10,4.1922593E10,0E0,0E0,0E0,0E0,0E0,0E0,0E0,0E0],"parents":[2147483647,0,0,1,1,2,2,3,3,4,4,5,5,6,6],"right_children":[2,4,6,8,10,12,14,-1,-1,-1,-1,-1,-1,-1,-1],"split_conditions":[7E0,3.3292E4,5E0,8.5E1,1E0,2.59E2,2.868E4,1.3541444E2,1.1049805E2,1.5735045E2,1.2914417E2,1.7491304E2,1.4942953E2,1.2595699E2,1.5054509E2],"split_indices":[1,6,2,0,1,0,6,0,0,0,0,0,0,0,0],"split_type":[0,0,0,0,0,0,0,0,0,0,0,0,0,0,0],"sum_hessian":[1.45357E5,4.2375E4,1.02982E5,2.3772E4,1.8603E4,7.3572E4,2.941E4,4.075E3,1.9697E4,3.807E3,1.4796E4,5.2734E4,2.0838E4,1.1336E4,1.8074E4],"tree_param":{"num_deleted":"0","num_feature":"9","num_nodes":"15","size_leaf_vector":"1"}},{"base_weights":[1.4796922E4,1.2676422E4,1.6068326E4,1.4743757E4,1.2322701E4,1.4688499E4,1.702577E4,1.4115126E2,1.6934384E2,1.2839986E2,1.1026925E2,1.6866615E2,1.2890813E2,1.9748285E2,1.437455E2],"categories":[],"categories_nodes":[],"categories_segments":[],"categories_sizes":[],"default_left":[0,0,0,0,0,0,0,0,0,0,0,0,0,0,0],"id":77,"left_children":[1,3,5,7,9,11,13,-1,-1,-1,-1,-1,-1,-1,-1],"loss_changes":[3.9168298E11,3.9664484E10,1.1979771E11,1.0717233E10,3.1050433E10,1.4556332E11,3.868805E11,0E0,0E0,0E0,0E0,0E0,0E0,0E0,0E0],"parents":[2147483647,0,0,1,1,2,2,3,3,4,4,5,5,6,6],"right_children":[2,4,6,8,10,12,14,-1,-1,-1,-1,-1,-1,-1,-1],"split_conditions":[9E0,5.3E1,1.47E2,7E0,5E0,6.7E1,2.53E2,1.4115126E2,1.6934384E2,1.2839986E2,1.1026925E2,1.6866615E2,1.2890813E2,1.9748285E2,1.437455E2],"split_indices":[1,0,0,1,2,0,0,0,0,0,0,0,0,0,0],"split_type":[0,0,0,0,0,0,0,0,0,0,0,0,0,0,0],"sum_hessian":[1.45357E5,5.4489E4,9.0868E4,7.955E3,4.6534E4,3.723E4,5.3638E4,6.187E3,1.768E3,3.3251E4,1.3283E4,1.683E4,2.04E4,2.646E4,2.7178E4],"tree_param":{"num_deleted":"0","num_feature":"9","num_nodes":"15","size_leaf_vector":"1"}},{"base_weights":[1.4648961E4,1.2112915E4,1.5692364E4,1.146795E4,1.3632906E4,1.6444455E4,1.3810442E4,1.3216685E2,1.1024373E2,1.5873505E2,1.2959715E2,1.6021892E2,1.9484853E2,1.17093994E2,1.4473697E2],"categories":[],"categories_nodes":[],"categories_segments":[],"categories_sizes":[],"default_left":[0,1,0,0,0,1,0,0,0,0,0,0,0,0,0],"id":78,"left_children":[1,3,5,7,9,11,13,-1,-1,-1,-1,-1,-1,-1,-1],"loss_changes":[3.844436E11,4.138677E10,1.4553186E11,2.29376E10,1.882823E10,9.421036E10,4.081582E10,0E0,0E0,0E0,0E0,0E0,0E0,0E0,0E0],"parents":[2147483647,0,0,1,1,2,2,3,3,4,4,5,5,6,6],"right_children":[2,4,6,8,10,12,14,-1,-1,-1,-1,-1,-1,-1,-1],"split_conditions":[7E0,3.5719E4,5E0,8.5E1,1E0,3.9373E4,2.6483E4,1.3216685E2,1.1024373E2,1.5873505E2,1.2959715E2,1.6021892E2,1.9484853E2,1.17093994E2,1.4473697E2],"split_indices":[1,6,2,0,1,6,6,0,0,0,0,0,0,0,0],"split_type":[0,0,0,0,0,0,0,0,0,0,0,0,0,0,0],"sum_hessian":[1.45357E5,4.2375E4,1.02982E5,2.9757E4,1.2618E4,7.3572E4,2.941E4,6.015E3,2.3742E4,2.91E3,9.708E3,6.46E4,8.972E3,7.061E3,2.2349E4],"tree_param":{"num_deleted":"0","num_feature":"9","num_nodes":"15","size_leaf_vector":"1"}},{"base_weights":[1.45024795E4,1.2421845E4,1.5749981E4,1.4457821E4,1.207349E4,1.4401366E4,1.6707695E4,1.3639565E2,1.6088268E2,1.2583594E2,1.0795711E2,1.6539804E2,1.26794754E2,1.9697014E2,1.4271992E2],"categories":[],"categories_nodes":[],"categories_segments":[],"categories_sizes":[],"default_left":[0,0,0,0,0,0,0,0,0,0,0,0,0,0,0],"id":79,"left_children":[1,3,5,7,9,11,13,-1,-1,-1,-1,-1,-1,-1,-1],"loss_changes":[3.770952E11,3.8472778E10,1.1712384E11,1.0394927E10,3.0195319E10,1.3875859E11,3.8655545E11,0E0,0E0,0E0,0E0,0E0,0E0,0E0,0E0],"parents":[2147483647,0,0,1,1,2,2,3,3,4,4,5,5,6,6],"right_children":[2,4,6,8,10,12,14,-1,-1,-1,-1,-1,-1,-1,-1],"split_conditions":[9E0,5.3E1,1.49E2,6E0,5E0,6.7E1,9E0,1.3639565E2,1.6088268E2,1.2583594E2,1.0795711E2,1.6539804E2,1.26794754E2,1.9697014E2,1.4271992E2],"split_indices":[1,0,0,1,2,0,4,0,0,0,0,0,0,0,0],"split_type":[0,0,0,0,0,0,0,0,0,0,0,0,0,0,0],"sum_hessian":[1.45357E5,5.4489E4,9.0868E4,7.955E3,4.6534E4,3.774E4,5.3128E4,5.303E3,2.652E3,3.3251E4,1.3283E4,1.683E4,2.091E4,2.385E4,2.9278E4],"tree_param":{"num_deleted":"0","num_feature":"9","num_nodes":"15","size_leaf_vector":"1"}},{"base_weights":[1.4357462E4,1.18682705E4,1.5381589E4,1.4272002E4,1.1467079E4,1.6125638E4,1.3519792E4,1.3456958E2,1.6380507E2,1.3199155E2,1.10725426E2,1.682733E2,1.4349168E2,1.1451725E2,1.4172641E2],"categories":[],"categories_nodes":[],"categories_segments":[],"categories_sizes":[],"default_left":[0,0,0,1,0,0,0,0,0,0,0,0,0,0,0],"id":80,"left_children":[1,3,5,7,9,11,13,-1,-1,-1,-1,-1,-1,-1,-1],"loss_changes":[3.7037382E11,4.070205E10,1.4243856E11,1.018862E10,2.4673518E10,9.147148E10,3.9547044E10,0E0,0E0,0E0,0E0,0E0,0E0,0E0,0E0],"parents":[2147483647,0,0,1,1,2,2,3,3,4,4,5,5,6,6],"right_children":[2,4,6,8,10,12,14,-1,-1,-1,-1,-1,-1,-1,-1],"split_conditions":[7E0,1E0,5E0,3.9554E4,6.7E1,2.59E2,2.6483E4,1.3456958E2,1.6380507E2,1.3199155E2,1.10725426E2,1.682733E2,1.4349168E2,1.1451725E2,1.4172641E2],"split_indices":[1,1,2,6,0,0,6,0,0,0,0,0,0,0,0],"split_type":[0,0,0,0,0,0,0,0,0,0,0,0,0,0,0],"sum_hessian":[1.45357E5,4.2375E4,1.02982E5,6.056E3,3.6319E4,7.3572E4,2.941E4,4.373E3,1.683E3,6.732E3,2.9587E4,5.2734E4,2.0838E4,7.061E3,2.2349E4],"tree_param":{"num_deleted":"0","num_feature":"9","num_nodes":"15","size_leaf_vector":"1"}},{"base_weights":[1.4213895E4,1.2171733E4,1.543833E4,1.4173849E4,1.1829174E4,1.40743125E4,1.6373879E4,1.3368951E2,1.5777692E2,1.2331952E2,1.0569747E2,1.6214142E2,1.228589E2,1.9001357E2,1.3790558E2],"categories":[],"categories_nodes":[],"categories_segments":[],"categories_sizes":[],"default_left":[0,0,0,0,0,0,0,0,0,0,0,0,0,0,0],"id":81,"left_children":[1,3,5,7,9,11,13,-1,-1,-1,-1,-1,-1,-1,-1],"loss_changes":[3.6328125E11,3.7204E10,1.1572714E11,1.0059514E10,2.933601E10,1.4130505E11,3.6555037E11,0E0,0E0,0E0,0E0,0E0,0E0,0E0,0E0],"parents":[2147483647,0,0,1,1,2,2,3,3,4,4,5,5,6,6],"right_children":[2,4,6,8,10,12,14,-1,-1,-1,-1,-1,-1,-1,-1],"split_conditions":[9E0,5.3E1,1.46E2,6E0,5E0,6.7E1,2.53E2,1.3368951E2,1.5777692E2,1.2331952E2,1.0569747E2,1.6214142E2,1.228589E2,1.9001357E2,1.3790558E2],"split_indices":[1,0,0,1,2,0,0,0,0,0,0,0,0,0,0],"split_type":[0,0,0,0,0,0,0,0,0,0,0,0,0,0,0],"sum_hessian":[1.45357E5,5.4489E4,9.0868E4,7.955E3,4.6534E4,3.6975E4,5.3893E4,5.303E3,2.652E3,3.3251E4,1.3283E4,1.683E4,2.0145E4,2.6715E4,2.7178E4],"tree_param":{"num_deleted":"0","num_feature":"9","num_nodes":"15","size_leaf_vector":"1"}},{"base_weights":[1.4071764E4,1.1628562E4,1.5076969E4,1.0763908E4,1.2732828E4,1.5813061E4,1.323509E4,1.2745497E2,1.0353322E2,1.4909741E2,1.217174E2,1.5155792E2,1.7662636E2,1.07819496E2,1.3770041E2],"categories":[],"categories_nodes":[],"categories_segments":[],"categories_sizes":[],"default_left":[0,1,0,0,0,1,0,0,0,0,0,0,0,0,0],"id":82,"left_children":[1,3,5,7,9,11,13,-1,-1,-1,-1,-1,-1,-1,-1],"loss_changes":[3.5681364E11,4.032404E10,1.3941447E11,1.9210174E10,2.2542025E10,8.9173E10,3.8448136E10,0E0,0E0,0E0,0E0,0E0,0E0,0E0,0E0],"parents":[2147483647,0,0,1,1,2,2,3,3,4,4,5,5,6,6],"right_children":[2,4,6,8,10,12,14,-1,-1,-1,-1,-1,-1,-1,-1],"split_conditions":[7E0,3.3292E4,5E0,8.5E1,1E0,3.5118E4,2.5333E4,1.2745497E2,1.0353322E2,1.4909741E2,1.217174E2,1.5155792E2,1.7662636E2,1.07819496E2,1.3770041E2],"split_indices":[1,6,2,0,1,6,6,0,0,0,0,0,0,0,0],"split_type":[0,0,0,0,0,0,0,0,0,0,0,0,0,0,0],"sum_hessian":[1.45357E5,4.2375E4,1.02982E5,2.3772E4,1.8603E4,7.3572E4,2.941E4,4.075E3,1.9697E4,3.807E3,1.4796E4,5.4289E4,1.9283E4,5.269E3,2.4141E4],"tree_param":{"num_deleted":"0","num_feature":"9","num_nodes":"15","size_leaf_vector":"1"}},{"base_weights":[1.3931053E4,1.2094131E4,1.5242262E4,1.1512288E4,1.3450287E4,1.3766193E4,1.6254653E4,1.08813965E2,1.2999138E2,1.4547891E2,1.0702733E2,1.5899184E2,1.2080129E2,1.8995685E2,1.3559766E2],"categories":[],"categories_nodes":[],"categories_segments":[],"categories_sizes":[],"default_left":[0,0,0,1,0,0,0,0,0,0,0,0,0,0,0],"id":83,"left_children":[1,3,5,7,9,11,13,-1,-1,-1,-1,-1,-1,-1,-1],"loss_changes":[3.499203E11,4.762108E10,1.26516986E11,3.960891E10,5.4646014E10,1.2392176E11,3.7131125E11,0E0,0E0,0E0,0E0,0E0,0E0,0E0,0E0],"parents":[2147483647,0,0,1,1,2,2,3,3,4,4,5,5,6,6],"right_children":[2,4,6,8,10,12,14,-1,-1,-1,-1,-1,-1,-1,-1],"split_conditions":[1E1,7E0,1.46E2,3.5719E4,5E0,6.5E1,2.53E2,1.08813965E2,1.2999138E2,1.4547891E2,1.0702733E2,1.5899184E2,1.2080129E2,1.8995685E2,1.3559766E2],"split_indices":[1,1,0,6,2,0,0,0,0,0,0,0,0,0,0],"split_type":[0,0,0,0,0,0,0,0,0,0,0,0,0,0,0],"sum_hessian":[1.45357E5,6.0546E4,8.4811E4,4.2375E4,1.8171E4,3.451E4,5.0301E4,2.9757E4,1.2618E4,1.2981E4,5.19E3,1.5232E4,1.9278E4,2.4934E4,2.5367E4],"tree_param":{"num_deleted":"0","num_feature":"9","num_nodes":"15","size_leaf_vector":"1"}},{"base_weights":[1.379175E4,1.1973197E4,1.5089846E4,1.38208955E4,1.1552683E4,1.362854E4,1.6092113E4,1.2916035E2,1.5927501E2,1.2090598E2,1.0205469E2,1.5740202E2,1.1959335E2,1.8758276E2,1.3375768E2],"categories":[],"categories_nodes":[],"categories_segments":[],"categories_sizes":[],"default_left":[0,0,0,0,0,0,0,0,0,0,0,0,0,0,0],"id":84,"left_children":[1,3,5,7,9,11,13,-1,-1,-1,-1,-1,-1,-1,-1],"loss_changes":[3.4295985E11,4.688393E10,1.2399831E11,2.118189E10,3.5623797E10,1.2145603E11,3.6404776E11,0E0,0E0,0E0,0E0,0E0,0E0,0E0,0E0],"parents":[2147483647,0,0,1,1,2,2,3,3,4,4,5,5,6,6],"right_children":[2,4,6,8,10,12,14,-1,-1,-1,-1,-1,-1,-1,-1],"split_conditions":[1E1,6.7E1,1.46E2,7E0,5E0,6.5E1,2.55E2,1.2916035E2,1.5927501E2,1.2090598E2,1.0205469E2,1.5740202E2,1.1959335E2,1.8758276E2,1.3375768E2],"split_indices":[1,0,0,1,2,0,0,0,0,0,0,0,0,0,0],"split_type":[0,0,0,0,0,0,0,0,0,0,0,0,0,0,0],"sum_hessian":[1.45357E5,6.0546E4,8.4811E4,1.1219E4,4.9327E4,3.451E4,5.0301E4,7.853E3,3.366E3,3.5246E4,1.4081E4,1.5232E4,1.9278E4,2.5382E4,2.4919E4],"tree_param":{"num_deleted":"0","num_feature":"9","num_nodes":"15","size_leaf_vector":"1"}},{"base_weights":[1.365384E4,1.127912E4,1.463087E4,1.3638872E4,1.0885279E4,1.5356878E4,1.2814231E4,1.2924838E2,1.5938098E2,1.282523E2,1.05531166E2,1.6032841E2,1.364555E2,1.14021805E2,1.3699188E2],"categories":[],"categories_nodes":[],"categories_segments":[],"categories_sizes":[],"default_left":[0,0,0,1,0,0,1,0,0,0,0,0,0,0,0],"id":85,"left_children":[1,3,5,7,9,11,13,-1,-1,-1,-1,-1,-1,-1,-1],"loss_changes":[3.3708992E11,3.923457E10,1.3562492E11,9.737994E9,2.3268688E10,8.4890616E10,3.6595827E10,0E0,0E0,0E0,0E0,0E0,0E0,0E0,0E0],"parents":[2147483647,0,0,1,1,2,2,3,3,4,4,5,5,6,6],"right_children":[2,4,6,8,10,12,14,-1,-1,-1,-1,-1,-1,-1,-1],"split_conditions":[7E0,1E0,5E0,4.0494E4,5.3E1,